################################################################################
# Neural network connection values (weights and biases).
################################################################################
# Col  Name       Description
################################################################################
# 1    connection Neural network connection value.
# 2    t          Connection type (a = weight, b = bias).
# 3    index      Index enumerating weights.
# 4    l_s        Starting point layer (end point layer for biases).
# 5    n_s        Starting point neuron in starting layer (end point neuron for biases).
# 6    l_e        End point layer.
# 7    n_e        End point neuron in end layer.
################################################################################
#                      1 2         3     4     5     6     7
#             connection t     index   l_s   n_s   l_e   n_e
############################################################
 -3.5512664093711532E-01 a         1     0     1     1     1
  1.7421792958127247E-01 a         2     0     1     1     2
  5.0381546794627108E-01 a         3     0     1     1     3
 -5.1117320184709536E-01 a         4     0     1     1     4
  2.9595493787001981E-01 a         5     0     1     1     5
 -4.4746190396176255E-01 a         6     0     1     1     6
 -3.3013115377019266E-02 a         7     0     1     1     7
  2.8795821976732655E-01 a         8     0     1     1     8
  5.3929678878901058E-02 a         9     0     1     1     9
 -3.4837940103701304E-01 a        10     0     1     1    10
 -1.3685353926650046E-01 a        11     0     1     1    11
 -4.3445782530223009E-01 a        12     0     1     1    12
  1.1641479331153847E-02 a        13     0     1     1    13
 -3.4449708154731512E-01 a        14     0     1     1    14
  1.7214088420959096E-02 a        15     0     1     1    15
 -2.9905957746275177E-02 a        16     0     1     1    16
  1.4404490326853137E-01 a        17     0     1     1    17
 -8.7349593498139672E-02 a        18     0     1     1    18
 -1.5223142151694491E-01 a        19     0     1     1    19
  8.6181595053377649E-02 a        20     0     1     1    20
  3.9296787665485916E-01 a        21     0     1     1    21
  6.8365957380594200E-02 a        22     0     1     1    22
  1.3124478065613807E-01 a        23     0     1     1    23
 -1.0067284372899338E-01 a        24     0     1     1    24
  1.0774981487931073E-01 a        25     0     1     1    25
  6.8746047284066261E-02 a        26     0     2     1     1
 -1.5419921121363528E-01 a        27     0     2     1     2
 -7.1795639884989282E-01 a        28     0     2     1     3
  4.9150993626645934E-01 a        29     0     2     1     4
 -4.2173541704309501E-02 a        30     0     2     1     5
  2.4615555103858405E-01 a        31     0     2     1     6
 -1.7194390897176419E-03 a        32     0     2     1     7
 -2.6056617690151251E-01 a        33     0     2     1     8
 -1.3432095321105275E-01 a        34     0     2     1     9
  2.1003421958741522E-01 a        35     0     2     1    10
  1.4425872273733825E-01 a        36     0     2     1    11
  3.1193752618606158E-01 a        37     0     2     1    12
  4.1768504723840777E-02 a        38     0     2     1    13
  1.9055041017092458E-01 a        39     0     2     1    14
  1.1599672964041102E-01 a        40     0     2     1    15
  3.7560032777752911E-02 a        41     0     2     1    16
  1.1484418695239522E-01 a        42     0     2     1    17
  9.2214167606121569E-02 a        43     0     2     1    18
  3.5113322669796770E-01 a        44     0     2     1    19
  2.2799911688091193E-01 a        45     0     2     1    20
 -6.5025043034490770E-01 a        46     0     2     1    21
 -1.8125872141905064E-01 a        47     0     2     1    22
 -1.6987847480240498E-01 a        48     0     2     1    23
  2.1732348071385195E-02 a        49     0     2     1    24
 -3.1331570455507901E-01 a        50     0     2     1    25
  1.1633059579401581E-01 a        51     0     3     1     1
 -1.3070322809440843E-01 a        52     0     3     1     2
 -2.4514618603462940E-01 a        53     0     3     1     3
  3.5459568399157099E-01 a        54     0     3     1     4
 -1.2267030859786393E-02 a        55     0     3     1     5
 -2.7133083813890746E-01 a        56     0     3     1     6
  1.3495367608297973E-01 a        57     0     3     1     7
  4.1618634130520066E-01 a        58     0     3     1     8
 -3.5684814337598220E-01 a        59     0     3     1     9
  3.8288999799492035E-01 a        60     0     3     1    10
  2.3322427647761504E-01 a        61     0     3     1    11
  1.7110328344016582E-01 a        62     0     3     1    12
  2.2102645834024751E-01 a        63     0     3     1    13
  6.3129246983758797E-02 a        64     0     3     1    14
 -1.8321021523415548E-01 a        65     0     3     1    15
 -2.6355498912455327E-01 a        66     0     3     1    16
 -1.4937055737679164E-01 a        67     0     3     1    17
  1.9453698709709161E-01 a        68     0     3     1    18
  6.3597581499951691E-02 a        69     0     3     1    19
  1.3370917592474224E-01 a        70     0     3     1    20
  3.0168942956044842E-01 a        71     0     3     1    21
  5.3108253911563062E-02 a        72     0     3     1    22
 -2.5143127177312363E-01 a        73     0     3     1    23
 -9.1309479644663502E-02 a        74     0     3     1    24
 -1.1862289423453570E-01 a        75     0     3     1    25
 -1.5144105631590082E-01 a        76     0     4     1     1
 -7.2676610840398365E-02 a        77     0     4     1     2
  6.5079009036126345E-01 a        78     0     4     1     3
 -5.3084352625593356E-01 a        79     0     4     1     4
  1.5726758660207596E-01 a        80     0     4     1     5
  1.1852502101755863E-01 a        81     0     4     1     6
  1.4071060037311736E-01 a        82     0     4     1     7
 -4.5144082178508328E-02 a        83     0     4     1     8
  2.3941998805761519E-01 a        84     0     4     1     9
 -3.0486924244217817E-01 a        85     0     4     1    10
 -3.6146239275363817E-01 a        86     0     4     1    11
  9.1489915976813815E-02 a        87     0     4     1    12
 -2.2044108692406642E-01 a        88     0     4     1    13
 -2.1140005910940501E-01 a        89     0     4     1    14
  2.0349073719060684E-01 a        90     0     4     1    15
 -2.4444874283207307E-01 a        91     0     4     1    16
 -3.3118394999241746E-01 a        92     0     4     1    17
 -4.2657552599892783E-02 a        93     0     4     1    18
 -1.8925344607904918E-01 a        94     0     4     1    19
 -3.6853009905917511E-01 a        95     0     4     1    20
  5.1452373590340428E-01 a        96     0     4     1    21
  1.2839760566431171E-01 a        97     0     4     1    22
  3.1510040034845432E-01 a        98     0     4     1    23
 -2.4576606190620026E-01 a        99     0     4     1    24
  2.1099266449642504E-01 a       100     0     4     1    25
  2.3299898278255754E-01 a       101     0     5     1     1
 -4.8823268719627402E-02 a       102     0     5     1     2
  6.0310025114625361E-02 a       103     0     5     1     3
 -2.0711412725988702E-02 a       104     0     5     1     4
  1.2116156503943909E-01 a       105     0     5     1     5
  6.9331878293970894E-01 a       106     0     5     1     6
 -2.2164755588450386E-01 a       107     0     5     1     7
 -2.7476256505411628E-01 a       108     0     5     1     8
  6.2621922904317853E-02 a       109     0     5     1     9
  1.9124221268009303E-01 a       110     0     5     1    10
  4.6967992950782889E-01 a       111     0     5     1    11
  2.2323278623544762E-01 a       112     0     5     1    12
 -2.8421422385899826E-03 a       113     0     5     1    13
 -6.3328561932245148E-02 a       114     0     5     1    14
  1.9172546462131351E-01 a       115     0     5     1    15
  2.2612369721111750E-01 a       116     0     5     1    16
  4.0102176454671312E-01 a       117     0     5     1    17
 -5.7664421488952754E-02 a       118     0     5     1    18
  1.2037037117072288E-01 a       119     0     5     1    19
 -3.2843772562686818E-01 a       120     0     5     1    20
 -2.4074802878270110E-01 a       121     0     5     1    21
  1.0357282974911536E-02 a       122     0     5     1    22
  2.8666217103631148E-01 a       123     0     5     1    23
  1.7573403537975948E-01 a       124     0     5     1    24
 -3.1382585575139882E-01 a       125     0     5     1    25
  2.4486888222123343E-01 a       126     0     6     1     1
  1.8926072062555419E-01 a       127     0     6     1     2
 -1.3193114666941927E-01 a       128     0     6     1     3
  1.0225134588377439E-01 a       129     0     6     1     4
 -2.1389700474663942E-01 a       130     0     6     1     5
 -2.6213570704821171E-01 a       131     0     6     1     6
  3.2642198005263040E-01 a       132     0     6     1     7
  2.2285279715438713E-01 a       133     0     6     1     8
 -3.3165158872307016E-01 a       134     0     6     1     9
 -1.6262152128355581E-01 a       135     0     6     1    10
 -1.3522053174300367E-02 a       136     0     6     1    11
 -1.5822199757627217E-01 a       137     0     6     1    12
 -3.2550487622240810E-02 a       138     0     6     1    13
  2.4566079678602357E-01 a       139     0     6     1    14
  2.6321823446881271E-01 a       140     0     6     1    15
  4.4074774290887270E-02 a       141     0     6     1    16
  7.6121210221102881E-02 a       142     0     6     1    17
  1.8766243775921559E-01 a       143     0     6     1    18
 -1.3312290373358410E-01 a       144     0     6     1    19
  2.5834229213898585E-01 a       145     0     6     1    20
 -2.9485607148057208E-01 a       146     0     6     1    21
  1.6645746235481304E-01 a       147     0     6     1    22
 -8.2193242848697778E-02 a       148     0     6     1    23
  2.1815964683976785E-02 a       149     0     6     1    24
  1.0632759605414945E-01 a       150     0     6     1    25
 -1.8131074277983400E-01 a       151     0     7     1     1
 -8.9490076089587742E-03 a       152     0     7     1     2
  1.3340503002357157E-01 a       153     0     7     1     3
 -8.8524451523130238E-03 a       154     0     7     1     4
 -1.9884786368756086E-01 a       155     0     7     1     5
 -2.9372388926653747E-01 a       156     0     7     1     6
  3.6282898932264335E-01 a       157     0     7     1     7
 -4.3506395955978250E-01 a       158     0     7     1     8
  4.1522198040217945E-01 a       159     0     7     1     9
 -1.2333704008390083E-01 a       160     0     7     1    10
 -2.9158250101143202E-01 a       161     0     7     1    11
  6.9467934601385825E-02 a       162     0     7     1    12
  6.4282103212455213E-02 a       163     0     7     1    13
 -1.3328278985508193E-01 a       164     0     7     1    14
 -2.5629674598533025E-01 a       165     0     7     1    15
  6.5842361256361726E-02 a       166     0     7     1    16
 -1.5009254977973091E-01 a       167     0     7     1    17
 -2.1913861939952911E-01 a       168     0     7     1    18
 -3.4081907368942677E-01 a       169     0     7     1    19
 -3.2602545647274839E-01 a       170     0     7     1    20
  1.8007284209511648E-01 a       171     0     7     1    21
  1.3298196821950192E-01 a       172     0     7     1    22
  4.2130199826421466E-01 a       173     0     7     1    23
  7.4964876373322401E-02 a       174     0     7     1    24
  1.3710640588952619E-01 a       175     0     7     1    25
 -2.1332819746706752E-01 a       176     0     8     1     1
  4.1091725233308618E-02 a       177     0     8     1     2
 -3.3366303631785538E-01 a       178     0     8     1     3
 -1.6669259878637024E-01 a       179     0     8     1     4
  5.4680266401765786E-02 a       180     0     8     1     5
 -4.9306822502695594E-02 a       181     0     8     1     6
  5.8854907708540860E-01 a       182     0     8     1     7
  3.8956690182635517E-01 a       183     0     8     1     8
  1.2968391816416860E-01 a       184     0     8     1     9
  2.6611294003749691E-01 a       185     0     8     1    10
 -2.0967297038634347E-01 a       186     0     8     1    11
 -1.2003119824988188E-01 a       187     0     8     1    12
  1.1556828420462227E-01 a       188     0     8     1    13
 -2.3071030515596883E-01 a       189     0     8     1    14
 -1.0353237180134002E-01 a       190     0     8     1    15
  1.4925173659990987E-01 a       191     0     8     1    16
  1.7030149150951024E-01 a       192     0     8     1    17
 -3.3310285168851916E-01 a       193     0     8     1    18
  5.6588283622159952E-02 a       194     0     8     1    19
 -2.8773289968137637E-02 a       195     0     8     1    20
  7.8251464378050251E-02 a       196     0     8     1    21
 -5.9004928201787828E-03 a       197     0     8     1    22
 -8.6004539668317712E-02 a       198     0     8     1    23
  1.8703650766748198E-01 a       199     0     8     1    24
  1.6575764731833399E-02 a       200     0     8     1    25
  3.1777502315925671E-01 a       201     0     9     1     1
  4.6129160752752030E-02 a       202     0     9     1     2
  6.9298287066636571E-02 a       203     0     9     1     3
 -2.1768719666592398E-01 a       204     0     9     1     4
  6.1947247437264555E-02 a       205     0     9     1     5
 -3.2577974967619416E-01 a       206     0     9     1     6
 -7.4036128678133306E-01 a       207     0     9     1     7
  3.9818860976845133E-01 a       208     0     9     1     8
 -2.3261522320842865E-01 a       209     0     9     1     9
 -8.0536695397974284E-02 a       210     0     9     1    10
  1.2451010569534934E-01 a       211     0     9     1    11
 -1.4792273728360020E-01 a       212     0     9     1    12
 -3.6356240013066993E-01 a       213     0     9     1    13
  3.5960613447058337E-01 a       214     0     9     1    14
  1.5191065078784330E-01 a       215     0     9     1    15
 -1.0362084715253202E-01 a       216     0     9     1    16
  3.7694702426230797E-02 a       217     0     9     1    17
  4.1889167866579924E-02 a       218     0     9     1    18
  3.5276310202444025E-02 a       219     0     9     1    19
 -1.6081294758878625E-01 a       220     0     9     1    20
  4.5182003968468949E-02 a       221     0     9     1    21
 -4.0644267836153780E-01 a       222     0     9     1    22
  1.0207401989287146E-01 a       223     0     9     1    23
  2.4050139684906019E-02 a       224     0     9     1    24
  2.7984207381346099E-01 a       225     0     9     1    25
  6.6807102158309623E-02 a       226     0    10     1     1
 -7.1999177688891636E-02 a       227     0    10     1     2
  1.0057384503142112E-01 a       228     0    10     1     3
  1.1892207546478785E-01 a       229     0    10     1     4
  2.4875155388304815E-01 a       230     0    10     1     5
  4.3109548275247067E-01 a       231     0    10     1     6
 -3.0122221910746211E-01 a       232     0    10     1     7
 -2.5591591505321878E-02 a       233     0    10     1     8
  5.6404947937619077E-02 a       234     0    10     1     9
  1.7151820545075885E-01 a       235     0    10     1    10
  1.1321867056932194E-02 a       236     0    10     1    11
 -9.9969850749402747E-05 a       237     0    10     1    12
 -1.3191858662217393E-01 a       238     0    10     1    13
 -1.5552096743268295E-01 a       239     0    10     1    14
 -2.1908626689982938E-01 a       240     0    10     1    15
 -1.2542656631576515E-01 a       241     0    10     1    16
 -8.8823764216423851E-02 a       242     0    10     1    17
  2.1308532020891988E-01 a       243     0    10     1    18
  7.6233915087824483E-02 a       244     0    10     1    19
  3.3955542794471660E-01 a       245     0    10     1    20
 -2.7246342645449478E-01 a       246     0    10     1    21
 -1.5157837830650178E-01 a       247     0    10     1    22
  2.6125377767443397E-01 a       248     0    10     1    23
 -1.3018973268922671E-01 a       249     0    10     1    24
 -6.2855855756549547E-02 a       250     0    10     1    25
 -4.2652551124443472E-01 a       251     0    11     1     1
 -1.2930479286961619E-01 a       252     0    11     1     2
  7.2880497475199292E-03 a       253     0    11     1     3
  1.2010554613683033E-01 a       254     0    11     1     4
 -9.8907892433894001E-02 a       255     0    11     1     5
 -1.1264467244126662E-01 a       256     0    11     1     6
 -1.8994554917733536E-01 a       257     0    11     1     7
 -4.1509063994963602E-01 a       258     0    11     1     8
  1.4973031885526311E-01 a       259     0    11     1     9
  2.8359441588821122E-01 a       260     0    11     1    10
 -1.2987674249377601E-01 a       261     0    11     1    11
  1.0007625693663855E-01 a       262     0    11     1    12
  2.0241743653854713E-01 a       263     0    11     1    13
 -9.6879317174599258E-02 a       264     0    11     1    14
  1.8748213400802688E-01 a       265     0    11     1    15
 -3.2284139612840787E-03 a       266     0    11     1    16
 -9.3949973104301199E-02 a       267     0    11     1    17
 -1.3796296764044066E-01 a       268     0    11     1    18
  7.1021117641879697E-02 a       269     0    11     1    19
  8.0605334561223069E-02 a       270     0    11     1    20
 -2.0797207742702340E-03 a       271     0    11     1    21
  2.5277688649820923E-01 a       272     0    11     1    22
  4.6853490632702943E-02 a       273     0    11     1    23
 -8.2177362428011394E-02 a       274     0    11     1    24
  1.0300600404192947E-01 a       275     0    11     1    25
 -1.5222559477644839E-02 a       276     0    12     1     1
 -1.0099927252892264E-01 a       277     0    12     1     2
  1.5214407953766002E-01 a       278     0    12     1     3
  5.2668200043843504E-02 a       279     0    12     1     4
 -1.4982924249920959E-01 a       280     0    12     1     5
  8.0166232309941007E-02 a       281     0    12     1     6
  4.9397848891273376E-02 a       282     0    12     1     7
 -2.4135035797555257E-01 a       283     0    12     1     8
 -8.8318079289618615E-02 a       284     0    12     1     9
  1.2073035387442900E-01 a       285     0    12     1    10
 -3.5479006810771824E-01 a       286     0    12     1    11
 -6.7318665895079377E-03 a       287     0    12     1    12
  4.6606114823344834E-02 a       288     0    12     1    13
 -1.7155235601742586E-01 a       289     0    12     1    14
 -2.4036997235055684E-02 a       290     0    12     1    15
  4.5174075542118865E-02 a       291     0    12     1    16
 -2.7033636294300311E-04 a       292     0    12     1    17
 -1.9120849217483318E-01 a       293     0    12     1    18
 -2.1325082053921401E-01 a       294     0    12     1    19
 -1.7871359269723444E-01 a       295     0    12     1    20
  1.2182900919178208E-01 a       296     0    12     1    21
 -1.3636308405933145E-01 a       297     0    12     1    22
  2.7567535072793176E-01 a       298     0    12     1    23
 -2.7105254762295639E-01 a       299     0    12     1    24
 -7.2749101495202070E-02 a       300     0    12     1    25
  1.4194973399036531E-01 a       301     0    13     1     1
 -3.1717490365992801E-01 a       302     0    13     1     2
  1.6578135999509580E-01 a       303     0    13     1     3
  2.2834182158098584E-01 a       304     0    13     1     4
 -3.8887954469819339E-02 a       305     0    13     1     5
  1.6442421021983514E-01 a       306     0    13     1     6
 -1.5216194089430519E-02 a       307     0    13     1     7
 -2.4005965056122434E-02 a       308     0    13     1     8
  2.2017412759500407E-01 a       309     0    13     1     9
 -6.7473698531124657E-02 a       310     0    13     1    10
  6.0463721153380754E-03 a       311     0    13     1    11
 -1.8619852168046644E-01 a       312     0    13     1    12
 -1.7693022386847054E-01 a       313     0    13     1    13
 -2.5210633531636124E-02 a       314     0    13     1    14
  1.5336135528579370E-01 a       315     0    13     1    15
  1.5460482244112023E-01 a       316     0    13     1    16
  2.3349658789714522E-01 a       317     0    13     1    17
  1.8677604568736283E-01 a       318     0    13     1    18
  2.1203204744526295E-02 a       319     0    13     1    19
  1.1782051102687784E-02 a       320     0    13     1    20
 -1.0921553144351736E-02 a       321     0    13     1    21
  1.6189378106073121E-01 a       322     0    13     1    22
 -5.6576265636794576E-02 a       323     0    13     1    23
 -7.5934082713142769E-03 a       324     0    13     1    24
 -3.3787077529647817E-02 a       325     0    13     1    25
 -1.7935201664829026E-01 a       326     0    14     1     1
 -4.8625544731554449E-02 a       327     0    14     1     2
  9.6806143069585335E-02 a       328     0    14     1     3
  1.4934617974399980E-01 a       329     0    14     1     4
  9.3094373618846163E-02 a       330     0    14     1     5
 -7.2257708880311871E-03 a       331     0    14     1     6
  8.8684886898647314E-02 a       332     0    14     1     7
  3.8874409033564671E-03 a       333     0    14     1     8
 -1.5920672365986481E-02 a       334     0    14     1     9
 -8.3056264218151748E-03 a       335     0    14     1    10
  1.8065756993221277E-01 a       336     0    14     1    11
 -4.0455041956184386E-02 a       337     0    14     1    12
 -6.3818104795719125E-03 a       338     0    14     1    13
  4.4402964247038268E-02 a       339     0    14     1    14
 -2.2277776349226040E-02 a       340     0    14     1    15
 -2.0895195416350317E-02 a       341     0    14     1    16
  1.9705006469650838E-01 a       342     0    14     1    17
 -1.2106871252388851E-01 a       343     0    14     1    18
 -4.6079269712202636E-02 a       344     0    14     1    19
  1.9998504975337625E-01 a       345     0    14     1    20
 -1.3210296905357172E-01 a       346     0    14     1    21
  9.0671181000790291E-03 a       347     0    14     1    22
  1.0291301453864729E-01 a       348     0    14     1    23
 -5.2491022926811411E-02 a       349     0    14     1    24
  3.3666227869228592E-02 a       350     0    14     1    25
  7.2355706601463302E-02 a       351     0    15     1     1
  2.4411035773698087E-01 a       352     0    15     1     2
 -2.3979456660194284E-01 a       353     0    15     1     3
 -1.1520872563175462E-01 a       354     0    15     1     4
 -1.3705642973355681E-02 a       355     0    15     1     5
  1.1000518733166247E-01 a       356     0    15     1     6
 -2.4672085763436166E-01 a       357     0    15     1     7
 -1.9696185073684608E-01 a       358     0    15     1     8
 -9.1324430557031544E-03 a       359     0    15     1     9
 -3.9502455956002443E-02 a       360     0    15     1    10
 -9.7391024838982210E-02 a       361     0    15     1    11
  1.8148836916888689E-01 a       362     0    15     1    12
  1.3462879970572228E-01 a       363     0    15     1    13
 -3.4121099895679047E-02 a       364     0    15     1    14
  7.7566582456023075E-02 a       365     0    15     1    15
  2.7679258894914061E-01 a       366     0    15     1    16
 -2.0216659740576107E-01 a       367     0    15     1    17
 -2.8672110671536355E-01 a       368     0    15     1    18
 -2.0216285610430074E-01 a       369     0    15     1    19
  2.3547635037355030E-01 a       370     0    15     1    20
 -2.4357301818083948E-01 a       371     0    15     1    21
  9.1513124699554263E-02 a       372     0    15     1    22
 -1.7209268072305892E-01 a       373     0    15     1    23
 -1.4117240128650022E-01 a       374     0    15     1    24
 -1.9745842322259316E-01 a       375     0    15     1    25
  1.8233255994894813E-02 a       376     0    16     1     1
 -2.2403196134592521E-02 a       377     0    16     1     2
 -6.2652618215939024E-02 a       378     0    16     1     3
 -1.0994010177184889E-01 a       379     0    16     1     4
  5.5686917817070004E-02 a       380     0    16     1     5
  1.3637955826176140E-01 a       381     0    16     1     6
  1.6426215632747798E-01 a       382     0    16     1     7
  8.5227564458564588E-03 a       383     0    16     1     8
  1.1990829030068018E-01 a       384     0    16     1     9
 -2.4960005222182342E-02 a       385     0    16     1    10
 -9.9656936139887034E-02 a       386     0    16     1    11
 -1.3321400747888079E-01 a       387     0    16     1    12
  7.7658418164445367E-02 a       388     0    16     1    13
 -8.4881369599800180E-02 a       389     0    16     1    14
  1.1317266284875047E-01 a       390     0    16     1    15
 -6.0801742381828033E-02 a       391     0    16     1    16
  8.1568427673774247E-03 a       392     0    16     1    17
  4.2660152673959235E-02 a       393     0    16     1    18
 -2.0206575685739553E-02 a       394     0    16     1    19
  4.9218377111413053E-02 a       395     0    16     1    20
  4.9131950860591259E-02 a       396     0    16     1    21
 -1.3094853343639740E-01 a       397     0    16     1    22
  7.1716384750229345E-02 a       398     0    16     1    23
  6.7286744919013194E-02 a       399     0    16     1    24
  1.8501535729805924E-02 a       400     0    16     1    25
  1.0548165365851569E-01 a       401     0    17     1     1
 -7.4226942268494555E-03 a       402     0    17     1     2
  1.7950465917245126E-01 a       403     0    17     1     3
 -2.2336252375883006E-01 a       404     0    17     1     4
 -1.0371864850931246E-01 a       405     0    17     1     5
  5.8085875135658396E-02 a       406     0    17     1     6
  1.0981067691273007E-01 a       407     0    17     1     7
 -8.5375613440703602E-02 a       408     0    17     1     8
  1.1931567654935897E-01 a       409     0    17     1     9
 -3.8410874647917126E-01 a       410     0    17     1    10
  9.1094638812404788E-02 a       411     0    17     1    11
 -4.7853452204190024E-02 a       412     0    17     1    12
  8.0101338511002707E-02 a       413     0    17     1    13
 -2.3479814351006517E-02 a       414     0    17     1    14
  6.8689373969628931E-02 a       415     0    17     1    15
  2.5497036266213972E-02 a       416     0    17     1    16
  8.2261867578393350E-02 a       417     0    17     1    17
  1.1181024281639713E-01 a       418     0    17     1    18
 -2.9257839655605189E-01 a       419     0    17     1    19
  1.0886287760772134E-01 a       420     0    17     1    20
 -1.2239958564644050E-01 a       421     0    17     1    21
 -3.3379018723091139E-02 a       422     0    17     1    22
 -4.1858582967174490E-01 a       423     0    17     1    23
  2.6076241333047945E-01 a       424     0    17     1    24
  1.2297055673153767E-01 a       425     0    17     1    25
 -8.1242693253617507E-02 a       426     0    18     1     1
 -2.0831848274397980E-02 a       427     0    18     1     2
 -6.1547513477932927E-02 a       428     0    18     1     3
  1.2395118280624643E-02 a       429     0    18     1     4
  8.4318635075261342E-02 a       430     0    18     1     5
 -1.2566869632424932E-01 a       431     0    18     1     6
  1.1728431424249923E-01 a       432     0    18     1     7
  3.4336558060171433E-02 a       433     0    18     1     8
 -8.4122896127285504E-02 a       434     0    18     1     9
 -3.1490577865499858E-02 a       435     0    18     1    10
  2.5959848130432367E-01 a       436     0    18     1    11
  2.1980459304727587E-01 a       437     0    18     1    12
  1.3366239464568681E-02 a       438     0    18     1    13
  8.3574130593399451E-02 a       439     0    18     1    14
 -6.4320531909547909E-02 a       440     0    18     1    15
  4.7646462212876786E-02 a       441     0    18     1    16
 -2.0250206863521022E-02 a       442     0    18     1    17
  5.2108462862273337E-02 a       443     0    18     1    18
  3.6124277173111570E-02 a       444     0    18     1    19
 -1.2075153122282193E-02 a       445     0    18     1    20
  1.3400426946959668E-01 a       446     0    18     1    21
 -7.4243386702944586E-02 a       447     0    18     1    22
  1.1481722805476750E-01 a       448     0    18     1    23
 -1.6122881759562738E-01 a       449     0    18     1    24
 -2.1233024992611954E-01 a       450     0    18     1    25
 -4.0409578627207476E-01 a       451     0    19     1     1
 -1.5255346414444595E-01 a       452     0    19     1     2
  7.0212509798627670E-03 a       453     0    19     1     3
 -1.6734829111964722E-01 a       454     0    19     1     4
 -1.1934470708362722E-01 a       455     0    19     1     5
  3.9488967355497295E-01 a       456     0    19     1     6
 -4.8786694854236784E-01 a       457     0    19     1     7
 -1.6855049554400900E-01 a       458     0    19     1     8
  1.6902014241651755E-01 a       459     0    19     1     9
  1.5591734358613141E-01 a       460     0    19     1    10
 -4.4050514505555458E-02 a       461     0    19     1    11
 -8.0473609517663400E-02 a       462     0    19     1    12
 -4.9224785019425045E-02 a       463     0    19     1    13
 -1.5722279728868585E-01 a       464     0    19     1    14
 -2.5901741550753882E-01 a       465     0    19     1    15
 -5.6163913454302244E-03 a       466     0    19     1    16
 -2.8462041009591083E-01 a       467     0    19     1    17
 -9.3496998721569469E-02 a       468     0    19     1    18
 -2.5575588197400656E-01 a       469     0    19     1    19
 -2.2325139670571639E-01 a       470     0    19     1    20
  9.4638814870637952E-02 a       471     0    19     1    21
 -2.6923576949661654E-01 a       472     0    19     1    22
  9.3123280929597319E-02 a       473     0    19     1    23
  1.0085416928139389E-01 a       474     0    19     1    24
  3.8076371128051173E-01 a       475     0    19     1    25
  2.9792046458898247E-01 a       476     0    20     1     1
 -8.7153648315365054E-02 a       477     0    20     1     2
 -9.0948489423068171E-02 a       478     0    20     1     3
  1.1485054727743452E-01 a       479     0    20     1     4
 -7.2777225401789575E-02 a       480     0    20     1     5
  8.0533814878667564E-02 a       481     0    20     1     6
  2.0617790058381802E-01 a       482     0    20     1     7
 -9.5288577646657741E-02 a       483     0    20     1     8
  1.1162015099293519E-01 a       484     0    20     1     9
  1.1753438282760567E-01 a       485     0    20     1    10
  1.6148136899057966E-01 a       486     0    20     1    11
 -1.7133518910981957E-01 a       487     0    20     1    12
  4.8950645026827479E-02 a       488     0    20     1    13
 -2.1469964866073743E-01 a       489     0    20     1    14
 -4.3261607666915905E-02 a       490     0    20     1    15
  4.4072756402660535E-02 a       491     0    20     1    16
 -2.6732106599087037E-03 a       492     0    20     1    17
 -7.2294896764676531E-03 a       493     0    20     1    18
  1.0073310540871683E-01 a       494     0    20     1    19
 -8.6981966923132578E-02 a       495     0    20     1    20
 -1.3294714625065548E-01 a       496     0    20     1    21
  1.0902024718219487E-01 a       497     0    20     1    22
 -4.5273647535186472E-02 a       498     0    20     1    23
  1.4781124560722247E-01 a       499     0    20     1    24
 -5.8294499034010086E-02 a       500     0    20     1    25
 -2.6901995148700064E-01 a       501     0    21     1     1
  1.7260041558262187E-01 a       502     0    21     1     2
  9.9643155310664255E-02 a       503     0    21     1     3
  9.5199256207706126E-02 a       504     0    21     1     4
 -4.9581867338828432E-03 a       505     0    21     1     5
 -1.6711559641439760E-01 a       506     0    21     1     6
 -1.5846198696052968E-01 a       507     0    21     1     7
  3.3119987001522555E-01 a       508     0    21     1     8
  2.1734970618330099E-01 a       509     0    21     1     9
  9.6949356037495160E-02 a       510     0    21     1    10
  1.9267991432741510E-01 a       511     0    21     1    11
  1.6486536329077325E-01 a       512     0    21     1    12
 -1.2674734465673684E-01 a       513     0    21     1    13
  1.6465262694898336E-01 a       514     0    21     1    14
  2.3506440880546837E-02 a       515     0    21     1    15
 -1.3865798479027960E-01 a       516     0    21     1    16
 -3.7157024265533972E-01 a       517     0    21     1    17
  9.7984094919829942E-02 a       518     0    21     1    18
  1.5580744426010240E-01 a       519     0    21     1    19
  4.1928688095960126E-01 a       520     0    21     1    20
  3.9153442797644167E-01 a       521     0    21     1    21
 -1.0855486063822303E-01 a       522     0    21     1    22
  1.0799443530900285E-01 a       523     0    21     1    23
 -5.6402450758989135E-02 a       524     0    21     1    24
 -2.7304999630999160E-01 a       525     0    21     1    25
 -6.9775649337506726E-02 a       526     0    22     1     1
  4.4833026005796583E-02 a       527     0    22     1     2
  2.5887254668641519E-02 a       528     0    22     1     3
  1.1327865024514339E-01 a       529     0    22     1     4
 -3.8506556143972449E-02 a       530     0    22     1     5
 -1.2720629785857707E-01 a       531     0    22     1     6
 -7.8145111229110970E-02 a       532     0    22     1     7
 -1.0807386244095767E-01 a       533     0    22     1     8
 -1.0509687725100471E-01 a       534     0    22     1     9
 -1.1027234299079121E-01 a       535     0    22     1    10
 -2.5064518030091870E-01 a       536     0    22     1    11
  2.9693913965346874E-01 a       537     0    22     1    12
 -1.0808810286523746E-01 a       538     0    22     1    13
  2.0240547026485947E-01 a       539     0    22     1    14
  2.0663077287638973E-01 a       540     0    22     1    15
  4.1904678648942484E-02 a       541     0    22     1    16
  3.6978373251767456E-02 a       542     0    22     1    17
  2.4962244958652030E-01 a       543     0    22     1    18
  1.1333981337479226E-01 a       544     0    22     1    19
  3.9321840844893027E-02 a       545     0    22     1    20
 -1.0645521734862090E-01 a       546     0    22     1    21
  1.9636279365113340E-01 a       547     0    22     1    22
  1.4074291819183865E-01 a       548     0    22     1    23
 -1.0464254395748708E-01 a       549     0    22     1    24
 -6.8528251095561585E-02 a       550     0    22     1    25
 -6.0209703554132417E-02 a       551     0    23     1     1
 -6.3038615421096719E-02 a       552     0    23     1     2
  4.3419753596705794E-02 a       553     0    23     1     3
  2.3059739893541512E-01 a       554     0    23     1     4
  2.0892650720232851E-02 a       555     0    23     1     5
 -1.4074299288891717E-01 a       556     0    23     1     6
  3.7822501290852689E-01 a       557     0    23     1     7
 -1.0513097312406089E-01 a       558     0    23     1     8
  3.1343787822680691E-01 a       559     0    23     1     9
  4.4842052233546209E-01 a       560     0    23     1    10
 -2.8535385968503196E-01 a       561     0    23     1    11
 -6.4416598712950912E-02 a       562     0    23     1    12
 -1.8134446279663891E-01 a       563     0    23     1    13
  3.3265962888292688E-01 a       564     0    23     1    14
  7.3209358327210761E-02 a       565     0    23     1    15
  1.4635135691134554E-01 a       566     0    23     1    16
  1.5279557435242749E-01 a       567     0    23     1    17
 -2.4921482294512666E-02 a       568     0    23     1    18
  2.4442964054214514E-01 a       569     0    23     1    19
  3.2998761313121550E-01 a       570     0    23     1    20
 -7.2449871350226250E-02 a       571     0    23     1    21
  4.2070736535762771E-01 a       572     0    23     1    22
 -2.1798963999215260E-01 a       573     0    23     1    23
  3.8647293178688466E-02 a       574     0    23     1    24
 -6.0538559655827821E-02 a       575     0    23     1    25
  9.8801319477713090E-02 a       576     0    24     1     1
 -3.4260167135085379E-01 a       577     0    24     1     2
  3.0959862460161424E-02 a       578     0    24     1     3
 -2.3282643115148141E-01 a       579     0    24     1     4
  7.5668753295221561E-02 a       580     0    24     1     5
  2.1223829566543190E-01 a       581     0    24     1     6
 -3.2754824364035279E-01 a       582     0    24     1     7
 -4.1734436298904148E-01 a       583     0    24     1     8
  1.3396908657452886E-01 a       584     0    24     1     9
  1.5438644525514264E-01 a       585     0    24     1    10
  2.0111879154094486E-01 a       586     0    24     1    11
  1.3266322304477157E-01 a       587     0    24     1    12
 -1.2454114286068040E-01 a       588     0    24     1    13
  1.0057315721472199E-01 a       589     0    24     1    14
 -2.9926486620265919E-01 a       590     0    24     1    15
 -1.8252277769857234E-01 a       591     0    24     1    16
 -1.2369075782112847E-01 a       592     0    24     1    17
  4.6409072167933590E-01 a       593     0    24     1    18
  2.4036584836656866E-01 a       594     0    24     1    19
  2.2703332321647809E-02 a       595     0    24     1    20
 -2.0918544036208050E-01 a       596     0    24     1    21
  3.4366587389660502E-01 a       597     0    24     1    22
  6.7880771633357220E-02 a       598     0    24     1    23
 -4.8943928404320919E-01 a       599     0    24     1    24
  7.7729492228869490E-02 a       600     0    24     1    25
 -1.4688926671292088E-01 a       601     0    25     1     1
 -7.0795964670181996E-02 a       602     0    25     1     2
  1.4422635741820988E-01 a       603     0    25     1     3
  1.3896251115380762E-01 a       604     0    25     1     4
 -1.0802507547767923E-01 a       605     0    25     1     5
  1.7550764138305766E-02 a       606     0    25     1     6
  9.3509995384552125E-02 a       607     0    25     1     7
  5.5252966105132043E-02 a       608     0    25     1     8
 -9.1529523896881196E-02 a       609     0    25     1     9
 -6.4753222461956278E-02 a       610     0    25     1    10
  2.6331635628969186E-01 a       611     0    25     1    11
  1.2484107717258668E-01 a       612     0    25     1    12
  7.5941692835912941E-02 a       613     0    25     1    13
 -7.7477853097021876E-02 a       614     0    25     1    14
 -1.2942391498496861E-01 a       615     0    25     1    15
  1.8584296893460797E-01 a       616     0    25     1    16
 -1.7724900627982254E-01 a       617     0    25     1    17
 -1.9753036270172820E-02 a       618     0    25     1    18
 -1.2029523233151146E-01 a       619     0    25     1    19
  1.2903167561646323E-03 a       620     0    25     1    20
  1.0979959174647062E-01 a       621     0    25     1    21
 -2.3165915909383650E-02 a       622     0    25     1    22
 -2.5323986311800550E-02 a       623     0    25     1    23
  9.4049083442963782E-02 a       624     0    25     1    24
 -2.0093405500829439E-01 a       625     0    25     1    25
 -2.6611847152866946E-02 a       626     0    26     1     1
  1.2304981713897524E-01 a       627     0    26     1     2
  8.8137725805265951E-02 a       628     0    26     1     3
 -7.2655209214753241E-02 a       629     0    26     1     4
 -2.7955195581249809E-01 a       630     0    26     1     5
  7.4823631549002068E-02 a       631     0    26     1     6
  2.6033754781809171E-01 a       632     0    26     1     7
  3.2958610173170678E-02 a       633     0    26     1     8
 -2.6515036880885567E-01 a       634     0    26     1     9
 -5.1581644244671113E-02 a       635     0    26     1    10
  2.7785033053123864E-01 a       636     0    26     1    11
 -1.3752366486854128E-01 a       637     0    26     1    12
  3.5928987557916658E-01 a       638     0    26     1    13
 -1.6938748382750793E-01 a       639     0    26     1    14
  2.3772705427413088E-01 a       640     0    26     1    15
  2.1596609543652067E-02 a       641     0    26     1    16
  6.2407840799385349E-02 a       642     0    26     1    17
 -2.5430366597155996E-01 a       643     0    26     1    18
 -1.5485377999770542E-01 a       644     0    26     1    19
  1.7930612386155012E-01 a       645     0    26     1    20
  3.6013966170772388E-01 a       646     0    26     1    21
  5.6923717323302354E-03 a       647     0    26     1    22
 -3.5555589080146610E-01 a       648     0    26     1    23
 -8.8862137473510516E-02 a       649     0    26     1    24
 -3.4277436397819730E-02 a       650     0    26     1    25
  2.2632704687879654E-01 a       651     0    27     1     1
  4.7899673541075100E-01 a       652     0    27     1     2
 -2.2986615039457661E-01 a       653     0    27     1     3
 -9.4897925578045772E-02 a       654     0    27     1     4
  2.2725969122886505E-01 a       655     0    27     1     5
 -6.1999074444837021E-01 a       656     0    27     1     6
 -5.1038039059841400E-01 a       657     0    27     1     7
  5.2885402453887764E-01 a       658     0    27     1     8
 -2.6914382401706466E-01 a       659     0    27     1     9
  2.0971496219759417E-01 a       660     0    27     1    10
 -9.7156397936115094E-02 a       661     0    27     1    11
 -1.5906205583979988E-01 a       662     0    27     1    12
 -3.7966324363835685E-01 a       663     0    27     1    13
 -1.9242354978267118E-01 a       664     0    27     1    14
  6.4095234909632870E-02 a       665     0    27     1    15
 -1.7090843634595079E-01 a       666     0    27     1    16
 -6.3979746775026450E-02 a       667     0    27     1    17
  3.4251157992185222E-01 a       668     0    27     1    18
  6.0183601926545016E-01 a       669     0    27     1    19
  4.3988615871584952E-02 a       670     0    27     1    20
 -3.3448750842666375E-01 a       671     0    27     1    21
 -4.3102601196722035E-01 a       672     0    27     1    22
 -1.4083092879284750E-01 a       673     0    27     1    23
  3.9339544946578514E-01 a       674     0    27     1    24
 -2.1016891367693286E-01 a       675     0    27     1    25
 -1.2579427908982968E-01 a       676     0    28     1     1
  1.7405879844428510E-01 a       677     0    28     1     2
 -3.8285607227791542E-02 a       678     0    28     1     3
 -1.1149230268308014E-01 a       679     0    28     1     4
  2.1034850003550990E-02 a       680     0    28     1     5
 -5.3167795320511538E-02 a       681     0    28     1     6
  3.8320073385926093E-02 a       682     0    28     1     7
 -4.9239062306331849E-03 a       683     0    28     1     8
 -6.7581818453306115E-04 a       684     0    28     1     9
 -1.8249877158773678E-01 a       685     0    28     1    10
 -2.8143326861784485E-01 a       686     0    28     1    11
  1.0414250138817996E-01 a       687     0    28     1    12
  1.4999721420169589E-02 a       688     0    28     1    13
  2.7783656994200717E-01 a       689     0    28     1    14
  3.3826943229792422E-01 a       690     0    28     1    15
 -1.0528331962261589E-01 a       691     0    28     1    16
  2.1212597691320764E-01 a       692     0    28     1    17
 -7.4221645307072689E-02 a       693     0    28     1    18
 -1.2680832952429485E-01 a       694     0    28     1    19
  9.3124144991558008E-02 a       695     0    28     1    20
 -3.1828591876256022E-02 a       696     0    28     1    21
 -1.1022696871757251E-01 a       697     0    28     1    22
  8.7660807137850946E-02 a       698     0    28     1    23
 -1.6172441168317625E-01 a       699     0    28     1    24
  2.3664491880517297E-01 a       700     0    28     1    25
  1.5515394626430262E-01 a       701     0    29     1     1
  2.6327491152493815E-01 a       702     0    29     1     2
  6.3410512490386234E-02 a       703     0    29     1     3
 -2.9368561361069537E-02 a       704     0    29     1     4
  4.9210485758864941E-02 a       705     0    29     1     5
  1.7362864758078836E-01 a       706     0    29     1     6
  2.3787005701573974E-01 a       707     0    29     1     7
  2.7309602238495545E-01 a       708     0    29     1     8
 -3.0572949008779254E-01 a       709     0    29     1     9
 -1.3905958806218505E-01 a       710     0    29     1    10
  1.2194704007798582E-01 a       711     0    29     1    11
 -4.9224809866548681E-02 a       712     0    29     1    12
  1.8019602534224341E-01 a       713     0    29     1    13
  6.9362337236469576E-02 a       714     0    29     1    14
 -5.8026008428365923E-02 a       715     0    29     1    15
  1.1007445543950335E-01 a       716     0    29     1    16
 -6.9578479392320078E-02 a       717     0    29     1    17
  1.2931107260498192E-01 a       718     0    29     1    18
 -1.8177229608461970E-01 a       719     0    29     1    19
 -1.1049240280103935E-01 a       720     0    29     1    20
  1.1007360561015088E-02 a       721     0    29     1    21
 -8.2350557800928662E-02 a       722     0    29     1    22
  2.1270693754903047E-01 a       723     0    29     1    23
  2.4200745184774874E-01 a       724     0    29     1    24
  1.1478936619166087E-01 a       725     0    29     1    25
 -4.5058578408953501E-03 a       726     0    30     1     1
 -7.7884071598873006E-02 a       727     0    30     1     2
 -2.4162677601077698E-01 a       728     0    30     1     3
 -1.0145798934838997E-01 a       729     0    30     1     4
  2.5980011762687377E-01 a       730     0    30     1     5
  8.1124477530502781E-02 a       731     0    30     1     6
  7.0027403917957573E-02 a       732     0    30     1     7
 -3.4514470525740970E-02 a       733     0    30     1     8
  3.4699243323459361E-01 a       734     0    30     1     9
 -2.9619574765109499E-02 a       735     0    30     1    10
  7.0607905602248716E-03 a       736     0    30     1    11
 -1.5232328349471455E-01 a       737     0    30     1    12
  4.6815760333397932E-02 a       738     0    30     1    13
 -1.2482001971400473E-01 a       739     0    30     1    14
  1.0437559227244343E-01 a       740     0    30     1    15
 -2.0224578939259907E-01 a       741     0    30     1    16
 -1.1506627978124162E-01 a       742     0    30     1    17
 -2.4754969908505026E-01 a       743     0    30     1    18
  9.9814072100959661E-02 a       744     0    30     1    19
 -1.9100031814900872E-01 a       745     0    30     1    20
 -7.5393685908154470E-02 a       746     0    30     1    21
  3.8205006494401714E-02 a       747     0    30     1    22
  3.5184890958892101E-02 a       748     0    30     1    23
  2.6320333003960461E-01 a       749     0    30     1    24
 -7.9655639095155856E-02 a       750     0    30     1    25
  1.3049433501159027E-01 b       751     1     1
  1.1531666136395803E-01 b       752     1     2
  1.0255945258641822E-02 b       753     1     3
  5.7260789035904251E-02 b       754     1     4
  4.9702413424227862E-02 b       755     1     5
  1.9557639960320661E-02 b       756     1     6
  1.4067632026732813E-01 b       757     1     7
 -7.3172141438789676E-03 b       758     1     8
 -1.3001735429668645E-01 b       759     1     9
 -1.2481223998446780E-01 b       760     1    10
  1.5073978863000073E-01 b       761     1    11
 -1.1815233708595388E-01 b       762     1    12
 -2.3790018399051749E-03 b       763     1    13
 -2.1663441810215320E-02 b       764     1    14
 -1.2916230076795682E-01 b       765     1    15
  5.5058523499959697E-02 b       766     1    16
 -9.8046201765425917E-02 b       767     1    17
 -8.9321056050456094E-02 b       768     1    18
  3.2197378824374068E-02 b       769     1    19
 -4.9995235685497831E-02 b       770     1    20
 -1.6813812139899684E-01 b       771     1    21
 -7.8631787822107183E-02 b       772     1    22
 -9.6147656050751193E-02 b       773     1    23
  4.0457570922619396E-02 b       774     1    24
 -1.0588211351613346E-02 b       775     1    25
 -6.5376574243939764E-02 a       776     1     1     2     1
 -1.4501644289367804E-01 a       777     1     1     2     2
 -9.8296823157793343E-03 a       778     1     1     2     3
 -1.4175295012740935E-01 a       779     1     1     2     4
 -1.9072321805153732E-02 a       780     1     1     2     5
  9.3907115297069618E-03 a       781     1     1     2     6
  1.4911048955662243E-01 a       782     1     1     2     7
 -1.2045450604426002E-01 a       783     1     1     2     8
  1.2340289589537087E-01 a       784     1     1     2     9
 -1.2031826896600728E-01 a       785     1     1     2    10
 -3.3160917042692450E-01 a       786     1     1     2    11
  3.7403713302761288E-01 a       787     1     1     2    12
  2.1442123279933481E-01 a       788     1     1     2    13
 -3.8371534059504980E-01 a       789     1     1     2    14
 -1.7745476565716453E-01 a       790     1     1     2    15
 -1.6852851962337556E-01 a       791     1     1     2    16
  2.1978835862798840E-01 a       792     1     1     2    17
 -1.0289160719090099E-01 a       793     1     1     2    18
  1.1812755359320787E-01 a       794     1     1     2    19
 -2.2125545190754034E-01 a       795     1     1     2    20
  1.1252056266353595E-01 a       796     1     1     2    21
  4.8681276903245119E-01 a       797     1     1     2    22
 -1.9834937281874143E-01 a       798     1     1     2    23
  2.8774888719405613E-02 a       799     1     1     2    24
  4.1313929580014086E-01 a       800     1     1     2    25
  1.0993619598931961E-01 a       801     1     2     2     1
 -1.4833155161790859E-01 a       802     1     2     2     2
  1.4451215272353199E-01 a       803     1     2     2     3
  1.1844299896128660E-01 a       804     1     2     2     4
 -8.2949981419055158E-02 a       805     1     2     2     5
 -4.7219427371725575E-01 a       806     1     2     2     6
  8.4926223420912661E-02 a       807     1     2     2     7
  7.1417486273876868E-02 a       808     1     2     2     8
 -1.6950265505710352E-01 a       809     1     2     2     9
 -2.0687092008792099E-01 a       810     1     2     2    10
 -6.0618754429710153E-02 a       811     1     2     2    11
  3.6655717268491073E-01 a       812     1     2     2    12
  5.3318353963299071E-02 a       813     1     2     2    13
  3.5938804559720643E-02 a       814     1     2     2    14
 -2.3941116846624613E-01 a       815     1     2     2    15
 -1.4299038771852485E-01 a       816     1     2     2    16
 -1.3090979167775985E-01 a       817     1     2     2    17
  4.1619599033883692E-01 a       818     1     2     2    18
 -2.4581222063910804E-01 a       819     1     2     2    19
  4.5579446122396422E-01 a       820     1     2     2    20
  3.1697612391876734E-01 a       821     1     2     2    21
  1.8054384994641379E-01 a       822     1     2     2    22
  1.1767383234465030E-01 a       823     1     2     2    23
 -3.0460334999160926E-01 a       824     1     2     2    24
 -2.8500276270809372E-01 a       825     1     2     2    25
 -3.6761572174449375E-01 a       826     1     3     2     1
 -1.9741902029238123E-01 a       827     1     3     2     2
 -3.3058266194163916E-01 a       828     1     3     2     3
 -1.5993764317391043E-01 a       829     1     3     2     4
 -4.0422283689947974E-01 a       830     1     3     2     5
  1.4194428684026952E-01 a       831     1     3     2     6
  6.7933852724599064E-02 a       832     1     3     2     7
 -1.2389189696135817E-01 a       833     1     3     2     8
  2.4571499079111425E-01 a       834     1     3     2     9
 -5.0843781617856054E-01 a       835     1     3     2    10
 -1.4103806933831270E-01 a       836     1     3     2    11
 -3.2914326650311305E-02 a       837     1     3     2    12
 -1.8279852183207410E-01 a       838     1     3     2    13
 -8.2755267225059007E-02 a       839     1     3     2    14
 -6.4737841986134068E-02 a       840     1     3     2    15
 -1.7206611098013322E-01 a       841     1     3     2    16
 -2.4819933436671554E-01 a       842     1     3     2    17
 -5.4045768778624026E-01 a       843     1     3     2    18
  3.5713948334824946E-01 a       844     1     3     2    19
  1.1335819780244787E-01 a       845     1     3     2    20
  4.0306321795946350E-02 a       846     1     3     2    21
  1.9831271416817764E-01 a       847     1     3     2    22
 -4.4347885974526258E-01 a       848     1     3     2    23
  1.3591634558716401E-01 a       849     1     3     2    24
 -1.0504545853482175E-01 a       850     1     3     2    25
  3.3246291466599864E-01 a       851     1     4     2     1
  4.4294709648752900E-01 a       852     1     4     2     2
  5.7988607692597859E-02 a       853     1     4     2     3
  3.0016923526442912E-03 a       854     1     4     2     4
  1.9202402712554455E-03 a       855     1     4     2     5
 -1.8644083375059622E-01 a       856     1     4     2     6
  1.7211747379785154E-02 a       857     1     4     2     7
 -2.9751854116853188E-01 a       858     1     4     2     8
 -1.8520307195293781E-01 a       859     1     4     2     9
 -6.5624961297892956E-02 a       860     1     4     2    10
 -2.9550025137813912E-01 a       861     1     4     2    11
  3.8869262072591465E-01 a       862     1     4     2    12
  2.0551994763264139E-01 a       863     1     4     2    13
  6.0941479046866753E-01 a       864     1     4     2    14
 -1.6547109755832537E-01 a       865     1     4     2    15
  1.2895425252324696E-01 a       866     1     4     2    16
  3.1945409474207598E-01 a       867     1     4     2    17
  3.6436297157072911E-01 a       868     1     4     2    18
  3.3495523121932075E-02 a       869     1     4     2    19
 -3.8620595014564502E-01 a       870     1     4     2    20
 -1.2447676269901115E-01 a       871     1     4     2    21
  2.8177654442833167E-01 a       872     1     4     2    22
  7.5925990237290367E-02 a       873     1     4     2    23
 -1.6000980090116060E-01 a       874     1     4     2    24
 -3.6526913100816272E-01 a       875     1     4     2    25
  5.4471598550896685E-02 a       876     1     5     2     1
  1.7510374144400268E-01 a       877     1     5     2     2
  1.5915460000636017E-01 a       878     1     5     2     3
 -8.6484640792629949E-02 a       879     1     5     2     4
 -1.9345241184447945E-01 a       880     1     5     2     5
  2.0617280254350095E-02 a       881     1     5     2     6
 -1.7614391588170220E-01 a       882     1     5     2     7
  6.4736973301308842E-02 a       883     1     5     2     8
 -2.8090442623349182E-01 a       884     1     5     2     9
  2.2293158507667751E-01 a       885     1     5     2    10
 -3.2527768604909069E-01 a       886     1     5     2    11
  4.6820217726223266E-02 a       887     1     5     2    12
 -9.3231528732130822E-02 a       888     1     5     2    13
  1.2387618514165014E-01 a       889     1     5     2    14
  2.7678092180908692E-01 a       890     1     5     2    15
 -2.6799779106167061E-02 a       891     1     5     2    16
  7.9917765126458640E-03 a       892     1     5     2    17
 -1.8046355212475723E-01 a       893     1     5     2    18
 -3.1781419873697488E-02 a       894     1     5     2    19
 -1.1795374835541496E-02 a       895     1     5     2    20
  1.0865459294218159E-01 a       896     1     5     2    21
 -1.2122867503427869E-01 a       897     1     5     2    22
 -2.0228700532578217E-01 a       898     1     5     2    23
 -1.4672665555311137E-02 a       899     1     5     2    24
  1.2776517809824789E-01 a       900     1     5     2    25
  3.8570297345386884E-01 a       901     1     6     2     1
  1.4358820466987926E-01 a       902     1     6     2     2
  3.0770431868601378E-01 a       903     1     6     2     3
  3.4284317477299958E-01 a       904     1     6     2     4
  9.4802270075196024E-02 a       905     1     6     2     5
 -1.3371548103540451E-01 a       906     1     6     2     6
 -1.2797768677507726E-01 a       907     1     6     2     7
  2.0283567689348834E-02 a       908     1     6     2     8
 -1.8263848869443614E-01 a       909     1     6     2     9
  2.1393387305712375E-01 a       910     1     6     2    10
 -3.2015876283828138E-03 a       911     1     6     2    11
 -2.1653843923783077E-02 a       912     1     6     2    12
 -3.7776255990677399E-01 a       913     1     6     2    13
  4.7271710887285584E-01 a       914     1     6     2    14
 -4.4796907050635042E-02 a       915     1     6     2    15
 -3.6582615147869826E-02 a       916     1     6     2    16
  3.3094466545222129E-01 a       917     1     6     2    17
  2.1777610106455306E-01 a       918     1     6     2    18
 -1.0405321283378439E-01 a       919     1     6     2    19
  7.1602610349426388E-02 a       920     1     6     2    20
  8.9289320965347307E-02 a       921     1     6     2    21
  2.4052657929020244E-01 a       922     1     6     2    22
  1.0669163762636440E-01 a       923     1     6     2    23
 -1.1960258639702075E-01 a       924     1     6     2    24
 -4.7800605234880984E-03 a       925     1     6     2    25
 -3.1212902416002875E-01 a       926     1     7     2     1
 -6.5519394120002489E-02 a       927     1     7     2     2
 -3.0394518657799385E-01 a       928     1     7     2     3
 -1.2431971676659478E-01 a       929     1     7     2     4
  3.5888348902566106E-02 a       930     1     7     2     5
 -6.0283385230331464E-02 a       931     1     7     2     6
 -2.5402295240578027E-01 a       932     1     7     2     7
 -3.4544904891841012E-02 a       933     1     7     2     8
 -7.2975958353048535E-03 a       934     1     7     2     9
 -2.6688230632862991E-01 a       935     1     7     2    10
  9.5861374895462616E-04 a       936     1     7     2    11
  2.6578571171834233E-02 a       937     1     7     2    12
  7.7302214091596461E-02 a       938     1     7     2    13
  5.8768456449970841E-01 a       939     1     7     2    14
  1.2303136335127743E-01 a       940     1     7     2    15
  3.0413616209661826E-01 a       941     1     7     2    16
  7.3013140555259620E-02 a       942     1     7     2    17
  3.7147800864801472E-01 a       943     1     7     2    18
 -3.3390653795250297E-01 a       944     1     7     2    19
  2.6301656310069554E-01 a       945     1     7     2    20
  1.4355087737206446E-01 a       946     1     7     2    21
  1.4935733635325410E-01 a       947     1     7     2    22
 -3.5192208535460796E-02 a       948     1     7     2    23
 -4.3139453837067902E-02 a       949     1     7     2    24
  1.1407236575870309E-02 a       950     1     7     2    25
 -3.5332986431357521E-01 a       951     1     8     2     1
  3.4734337045995312E-01 a       952     1     8     2     2
 -3.1780100424475138E-01 a       953     1     8     2     3
  2.3955401405059165E-01 a       954     1     8     2     4
 -2.9842521522344606E-01 a       955     1     8     2     5
  3.9946026866988138E-01 a       956     1     8     2     6
  1.2553762995145976E-01 a       957     1     8     2     7
  3.4850141947244249E-02 a       958     1     8     2     8
 -3.4137143675617931E-01 a       959     1     8     2     9
 -1.9896573703806447E-01 a       960     1     8     2    10
  1.2275641197348545E-01 a       961     1     8     2    11
  8.5466722782147592E-02 a       962     1     8     2    12
 -4.1327130573460552E-01 a       963     1     8     2    13
 -4.0222576620776618E-01 a       964     1     8     2    14
  1.7295134317469205E-01 a       965     1     8     2    15
 -2.4053681611293565E-01 a       966     1     8     2    16
 -2.1273157015765951E-01 a       967     1     8     2    17
  1.7362307204548869E-01 a       968     1     8     2    18
  3.8821811023338715E-01 a       969     1     8     2    19
 -1.9213848456949234E-01 a       970     1     8     2    20
 -1.0426622036307288E-01 a       971     1     8     2    21
 -2.0807632050947689E-01 a       972     1     8     2    22
 -2.7827954644545977E-01 a       973     1     8     2    23
 -3.1665148720807273E-01 a       974     1     8     2    24
 -2.8628176111128972E-01 a       975     1     8     2    25
 -2.3664960527243045E-01 a       976     1     9     2     1
 -8.2954199701033599E-02 a       977     1     9     2     2
  4.6435206040326304E-01 a       978     1     9     2     3
 -1.1363178170580628E-01 a       979     1     9     2     4
  3.0245452566447739E-01 a       980     1     9     2     5
 -1.1352452636567134E-01 a       981     1     9     2     6
 -3.3041848209515701E-01 a       982     1     9     2     7
  4.4172487336455385E-01 a       983     1     9     2     8
  1.0098995427634841E-01 a       984     1     9     2     9
 -3.9029057433492520E-01 a       985     1     9     2    10
  5.8581630356563955E-02 a       986     1     9     2    11
 -1.7304004076176940E-01 a       987     1     9     2    12
 -9.6485167953134263E-02 a       988     1     9     2    13
 -8.4030924439246757E-02 a       989     1     9     2    14
  1.4481078860353075E-01 a       990     1     9     2    15
  2.4385328256071259E-01 a       991     1     9     2    16
 -1.5626066458965254E-01 a       992     1     9     2    17
 -7.7487224730407755E-02 a       993     1     9     2    18
  5.2189782217408809E-01 a       994     1     9     2    19
 -4.3916243256427806E-01 a       995     1     9     2    20
 -1.6471275670129923E-01 a       996     1     9     2    21
 -1.0638422767365245E-01 a       997     1     9     2    22
  1.6836887725508005E-03 a       998     1     9     2    23
  5.7445625821062135E-02 a       999     1     9     2    24
  7.3031130176153758E-02 a      1000     1     9     2    25
  8.4229070497541053E-02 a      1001     1    10     2     1
  1.9583034120795673E-01 a      1002     1    10     2     2
  3.6192759213528589E-02 a      1003     1    10     2     3
 -4.5996209361298063E-01 a      1004     1    10     2     4
  3.8498862645330784E-01 a      1005     1    10     2     5
  2.6383693299813560E-01 a      1006     1    10     2     6
  2.0212256439229082E-01 a      1007     1    10     2     7
  2.3235580079694979E-01 a      1008     1    10     2     8
 -5.6001911657407311E-01 a      1009     1    10     2     9
 -2.9405412287772970E-01 a      1010     1    10     2    10
 -1.4314516959168572E-01 a      1011     1    10     2    11
 -1.1949802519546406E-01 a      1012     1    10     2    12
  1.1231185996512338E-01 a      1013     1    10     2    13
  1.8455718017021480E-01 a      1014     1    10     2    14
 -1.9317517685465260E-01 a      1015     1    10     2    15
 -1.4377416102569927E-02 a      1016     1    10     2    16
 -2.2033767835624188E-01 a      1017     1    10     2    17
  1.3982498299933727E-02 a      1018     1    10     2    18
  6.8123219952262060E-02 a      1019     1    10     2    19
 -2.7950071487127023E-02 a      1020     1    10     2    20
 -2.0614186751758240E-01 a      1021     1    10     2    21
 -4.7756738522943432E-02 a      1022     1    10     2    22
  1.3827517994346333E-01 a      1023     1    10     2    23
  9.9592947657850664E-02 a      1024     1    10     2    24
  1.6317024493501064E-01 a      1025     1    10     2    25
  5.8374349392022706E-01 a      1026     1    11     2     1
 -1.3390532703674804E-02 a      1027     1    11     2     2
  6.6147667605741908E-02 a      1028     1    11     2     3
  1.5494492544242158E-01 a      1029     1    11     2     4
 -2.9077376187333659E-01 a      1030     1    11     2     5
  1.1502636019739365E-01 a      1031     1    11     2     6
  2.4236315913341133E-01 a      1032     1    11     2     7
 -3.2148249346851959E-01 a      1033     1    11     2     8
 -3.1408624129831766E-02 a      1034     1    11     2     9
  2.6588892673464082E-01 a      1035     1    11     2    10
 -3.0998982107965117E-01 a      1036     1    11     2    11
  1.6483999922810692E-02 a      1037     1    11     2    12
  1.3457670763761189E-02 a      1038     1    11     2    13
 -2.0176390443744580E-01 a      1039     1    11     2    14
  9.6161667700971315E-02 a      1040     1    11     2    15
  3.6221071834663127E-01 a      1041     1    11     2    16
 -1.5915650312968310E-01 a      1042     1    11     2    17
 -5.9667270637997878E-02 a      1043     1    11     2    18
 -6.0031940825746100E-01 a      1044     1    11     2    19
 -2.7584889882894181E-01 a      1045     1    11     2    20
  1.6444590330218031E-01 a      1046     1    11     2    21
  2.7281540731645315E-01 a      1047     1    11     2    22
 -1.1067381087481222E-01 a      1048     1    11     2    23
 -3.1614545932384369E-01 a      1049     1    11     2    24
 -3.5678106127125037E-01 a      1050     1    11     2    25
 -8.3835819731712308E-02 a      1051     1    12     2     1
 -2.6950846768469999E-01 a      1052     1    12     2     2
  2.5788900153785560E-01 a      1053     1    12     2     3
 -2.9698926963800498E-01 a      1054     1    12     2     4
  1.4109674597127822E-01 a      1055     1    12     2     5
  3.6994119120051561E-01 a      1056     1    12     2     6
 -1.7230265760122332E-01 a      1057     1    12     2     7
 -1.5746815299442010E-02 a      1058     1    12     2     8
 -4.2006565390903533E-01 a      1059     1    12     2     9
 -6.9187090497431561E-02 a      1060     1    12     2    10
  1.5517272143339281E-01 a      1061     1    12     2    11
  1.4108375793745259E-01 a      1062     1    12     2    12
  1.4485303562828849E-02 a      1063     1    12     2    13
  4.3809534139737694E-01 a      1064     1    12     2    14
 -3.3145427798510174E-01 a      1065     1    12     2    15
 -6.8898523337763612E-02 a      1066     1    12     2    16
  1.3857432904360947E-01 a      1067     1    12     2    17
 -1.5117060951632749E-01 a      1068     1    12     2    18
  1.1487630365684427E-01 a      1069     1    12     2    19
 -3.7025714615690641E-01 a      1070     1    12     2    20
 -3.1860365254501666E-01 a      1071     1    12     2    21
  2.7701193701132198E-01 a      1072     1    12     2    22
  4.3024698728122118E-01 a      1073     1    12     2    23
  9.1007306920132355E-02 a      1074     1    12     2    24
  3.5505656058934365E-01 a      1075     1    12     2    25
 -1.2283145441969383E-01 a      1076     1    13     2     1
 -2.3242584159292079E-01 a      1077     1    13     2     2
  3.4545796144815993E-01 a      1078     1    13     2     3
 -1.9626395808803432E-01 a      1079     1    13     2     4
  9.5984962718970099E-03 a      1080     1    13     2     5
  1.3149351469554491E-01 a      1081     1    13     2     6
 -1.0578778556309744E-02 a      1082     1    13     2     7
 -5.4119821179190973E-02 a      1083     1    13     2     8
 -4.8530399402048097E-01 a      1084     1    13     2     9
  3.0229952588487830E-01 a      1085     1    13     2    10
  8.6874395173038507E-02 a      1086     1    13     2    11
 -1.4222504136881967E-01 a      1087     1    13     2    12
  1.6727088713265445E-01 a      1088     1    13     2    13
 -1.2395940440905143E-01 a      1089     1    13     2    14
  1.6843681366063215E-01 a      1090     1    13     2    15
  2.5225252025756073E-01 a      1091     1    13     2    16
  1.9994061582191906E-02 a      1092     1    13     2    17
  3.1493281106434212E-01 a      1093     1    13     2    18
  6.7340180776887845E-02 a      1094     1    13     2    19
  7.7233072293843560E-02 a      1095     1    13     2    20
  3.9995650906403113E-01 a      1096     1    13     2    21
  2.8874243501470259E-01 a      1097     1    13     2    22
 -4.9315887836557509E-01 a      1098     1    13     2    23
  8.8320240019260185E-02 a      1099     1    13     2    24
 -2.6252638201993833E-01 a      1100     1    13     2    25
  1.5637974325999587E-01 a      1101     1    14     2     1
  1.0418662153302838E-01 a      1102     1    14     2     2
 -2.1358362350280716E-03 a      1103     1    14     2     3
  8.5931712002890043E-02 a      1104     1    14     2     4
  1.9912721943734452E-01 a      1105     1    14     2     5
 -1.7236197800280970E-01 a      1106     1    14     2     6
 -2.3205620495421764E-01 a      1107     1    14     2     7
 -2.7499992799815959E-01 a      1108     1    14     2     8
 -1.7639050676569507E-01 a      1109     1    14     2     9
  9.6531279407671922E-02 a      1110     1    14     2    10
 -2.3737231322471977E-01 a      1111     1    14     2    11
 -2.8986940496016911E-02 a      1112     1    14     2    12
 -2.3423419110587648E-01 a      1113     1    14     2    13
  2.7993835660847577E-01 a      1114     1    14     2    14
  1.9888217111945120E-01 a      1115     1    14     2    15
 -6.0472624194081746E-02 a      1116     1    14     2    16
  2.9612863668538392E-01 a      1117     1    14     2    17
  9.6609350769542857E-02 a      1118     1    14     2    18
 -6.2296946183559423E-02 a      1119     1    14     2    19
  2.8042010873810030E-01 a      1120     1    14     2    20
  1.3439835064757230E-01 a      1121     1    14     2    21
 -4.6945601614477125E-02 a      1122     1    14     2    22
  6.0360434295853541E-02 a      1123     1    14     2    23
 -1.9454101308053917E-01 a      1124     1    14     2    24
  7.2887703058894443E-02 a      1125     1    14     2    25
  3.5938051514645006E-02 a      1126     1    15     2     1
  1.2669250597204917E-01 a      1127     1    15     2     2
  1.5516797309599467E-01 a      1128     1    15     2     3
 -1.5568806110017297E-01 a      1129     1    15     2     4
  7.0723484126098315E-02 a      1130     1    15     2     5
  1.7957938139511773E-01 a      1131     1    15     2     6
 -2.6187625101754491E-01 a      1132     1    15     2     7
 -2.7550299895178665E-01 a      1133     1    15     2     8
  1.2953941790299539E-01 a      1134     1    15     2     9
 -1.8550097775590396E-01 a      1135     1    15     2    10
 -1.3998675995235921E-01 a      1136     1    15     2    11
 -2.6217001018843011E-01 a      1137     1    15     2    12
 -1.9152716973714817E-01 a      1138     1    15     2    13
 -2.4487588885709877E-03 a      1139     1    15     2    14
  2.2160472766134717E-01 a      1140     1    15     2    15
 -4.5782223696719843E-01 a      1141     1    15     2    16
  6.2378800710513875E-02 a      1142     1    15     2    17
 -1.8123476616368067E-01 a      1143     1    15     2    18
  9.4103841451188469E-02 a      1144     1    15     2    19
  2.0263996403244175E-01 a      1145     1    15     2    20
 -7.0287703384005501E-02 a      1146     1    15     2    21
  2.9929545542750657E-01 a      1147     1    15     2    22
 -1.1169095476004353E-02 a      1148     1    15     2    23
 -4.1388938209621828E-01 a      1149     1    15     2    24
  1.2862462664208238E-01 a      1150     1    15     2    25
 -2.0851121841774786E-01 a      1151     1    16     2     1
  1.9318004933044500E-01 a      1152     1    16     2     2
 -6.4576788005766161E-02 a      1153     1    16     2     3
 -2.6078594087848544E-01 a      1154     1    16     2     4
 -9.9077411417175076E-02 a      1155     1    16     2     5
  4.8486213263543559E-01 a      1156     1    16     2     6
  5.2598781622322260E-02 a      1157     1    16     2     7
  6.0033348358169362E-02 a      1158     1    16     2     8
 -1.2454789163190167E-03 a      1159     1    16     2     9
 -1.3418579894665911E-01 a      1160     1    16     2    10
 -4.4145129085751883E-01 a      1161     1    16     2    11
 -7.6549156666281995E-02 a      1162     1    16     2    12
 -1.8715723364988832E-01 a      1163     1    16     2    13
 -1.9681622180555766E-01 a      1164     1    16     2    14
 -1.5651171147116028E-01 a      1165     1    16     2    15
  5.0131097712111779E-02 a      1166     1    16     2    16
 -9.0246655632670925E-02 a      1167     1    16     2    17
 -1.7683650776235518E-01 a      1168     1    16     2    18
 -3.0400282073161433E-01 a      1169     1    16     2    19
  1.9495711319252695E-01 a      1170     1    16     2    20
  3.5755360322607410E-01 a      1171     1    16     2    21
  1.4159816959136989E-01 a      1172     1    16     2    22
 -1.1200056932363103E-01 a      1173     1    16     2    23
  3.4417299301105167E-02 a      1174     1    16     2    24
  1.1685389663581762E-01 a      1175     1    16     2    25
  2.0211033043985187E-02 a      1176     1    17     2     1
 -8.0261999316801003E-02 a      1177     1    17     2     2
  2.1929123149748747E-01 a      1178     1    17     2     3
  2.9118383632402495E-01 a      1179     1    17     2     4
  1.1604120225830603E-01 a      1180     1    17     2     5
  1.8015762257449541E-01 a      1181     1    17     2     6
 -1.6188930395613343E-01 a      1182     1    17     2     7
  2.1590329076481007E-01 a      1183     1    17     2     8
 -4.1232869154525775E-01 a      1184     1    17     2     9
 -3.2322186914971701E-01 a      1185     1    17     2    10
  4.7836924237968503E-01 a      1186     1    17     2    11
  4.0186731809469495E-02 a      1187     1    17     2    12
 -3.4323971652808588E-01 a      1188     1    17     2    13
 -3.9504122903831415E-02 a      1189     1    17     2    14
  1.5335462229017277E-01 a      1190     1    17     2    15
 -3.9635170472019071E-01 a      1191     1    17     2    16
  1.3727785834013653E-01 a      1192     1    17     2    17
 -1.4410440428382598E-01 a      1193     1    17     2    18
  1.8038710823860452E-01 a      1194     1    17     2    19
  1.1383823665169190E-01 a      1195     1    17     2    20
 -2.6404880904788958E-01 a      1196     1    17     2    21
  2.3448225576071603E-02 a      1197     1    17     2    22
 -3.3761238260531051E-01 a      1198     1    17     2    23
 -2.1121537995545397E-01 a      1199     1    17     2    24
  3.3648877830059148E-01 a      1200     1    17     2    25
 -7.3193254097262184E-02 a      1201     1    18     2     1
  8.9488288204812749E-02 a      1202     1    18     2     2
 -5.8363184450746210E-02 a      1203     1    18     2     3
  2.0722922504875232E-01 a      1204     1    18     2     4
  2.5340968577666789E-01 a      1205     1    18     2     5
 -1.9307764865996724E-01 a      1206     1    18     2     6
  2.9256691678165753E-01 a      1207     1    18     2     7
 -3.4390092969934888E-01 a      1208     1    18     2     8
 -9.8332096661512255E-02 a      1209     1    18     2     9
  2.6118728609638364E-01 a      1210     1    18     2    10
  6.8539235494279177E-02 a      1211     1    18     2    11
  3.3985802170636376E-01 a      1212     1    18     2    12
 -1.7499102559049942E-01 a      1213     1    18     2    13
 -2.2738085320518850E-01 a      1214     1    18     2    14
  6.2915374180687933E-02 a      1215     1    18     2    15
  2.9528491123250517E-01 a      1216     1    18     2    16
  2.9035094972630426E-01 a      1217     1    18     2    17
 -1.7961241977341447E-01 a      1218     1    18     2    18
  2.6024151387016503E-01 a      1219     1    18     2    19
  4.6855198220585714E-01 a      1220     1    18     2    20
  4.4263010036312160E-02 a      1221     1    18     2    21
 -3.7698755444892335E-01 a      1222     1    18     2    22
 -1.0059414973391878E-01 a      1223     1    18     2    23
  1.2455821996954025E-01 a      1224     1    18     2    24
  2.2935028565041088E-01 a      1225     1    18     2    25
  2.0523704747928195E-01 a      1226     1    19     2     1
 -3.2530430546584854E-01 a      1227     1    19     2     2
  1.2310808884996605E-01 a      1228     1    19     2     3
  8.8108161286829093E-02 a      1229     1    19     2     4
 -2.1079266927135107E-01 a      1230     1    19     2     5
 -2.6842654558985368E-01 a      1231     1    19     2     6
 -2.2645559948117253E-01 a      1232     1    19     2     7
  6.2378389483032093E-02 a      1233     1    19     2     8
 -2.0784128470368649E-01 a      1234     1    19     2     9
  1.6226577918085489E-02 a      1235     1    19     2    10
 -5.7019482600778097E-02 a      1236     1    19     2    11
  2.2096902878759433E-01 a      1237     1    19     2    12
 -3.1325100389660249E-01 a      1238     1    19     2    13
  4.9806963603303424E-02 a      1239     1    19     2    14
 -1.6568637738204792E-01 a      1240     1    19     2    15
  1.8232336702538215E-01 a      1241     1    19     2    16
  2.1782539273417353E-01 a      1242     1    19     2    17
  3.4637145089599131E-01 a      1243     1    19     2    18
 -3.3070775944930846E-02 a      1244     1    19     2    19
  9.1981040030789538E-02 a      1245     1    19     2    20
 -2.9698495031583733E-01 a      1246     1    19     2    21
 -6.4041030471565744E-02 a      1247     1    19     2    22
 -4.7470520042726483E-01 a      1248     1    19     2    23
  1.2492217809342396E-01 a      1249     1    19     2    24
  2.1275070466243887E-01 a      1250     1    19     2    25
 -2.0457000822513077E-01 a      1251     1    20     2     1
  1.0926958480268902E-01 a      1252     1    20     2     2
 -9.4252924704705324E-02 a      1253     1    20     2     3
  1.9695180998729342E-01 a      1254     1    20     2     4
 -2.8188054635023663E-01 a      1255     1    20     2     5
  5.7093377550170146E-02 a      1256     1    20     2     6
  1.5348958196814369E-01 a      1257     1    20     2     7
  2.4130431794960783E-01 a      1258     1    20     2     8
 -1.7779405534195902E-01 a      1259     1    20     2     9
  3.6004517388300000E-01 a      1260     1    20     2    10
  4.6485584287240971E-02 a      1261     1    20     2    11
  2.9582572962662579E-01 a      1262     1    20     2    12
 -8.6523226491518376E-02 a      1263     1    20     2    13
 -1.6034989423704032E-01 a      1264     1    20     2    14
  2.0132106212776357E-01 a      1265     1    20     2    15
  1.9780843433824283E-01 a      1266     1    20     2    16
 -2.3334997082790945E-01 a      1267     1    20     2    17
  2.6979570639106154E-01 a      1268     1    20     2    18
 -1.8218864268253557E-01 a      1269     1    20     2    19
 -9.2669121643678395E-02 a      1270     1    20     2    20
  2.9103577001358127E-01 a      1271     1    20     2    21
  1.2664453933460626E-01 a      1272     1    20     2    22
 -2.2610922892325955E-01 a      1273     1    20     2    23
  8.3608979049793752E-02 a      1274     1    20     2    24
  1.1597063359105569E-01 a      1275     1    20     2    25
 -1.9575540338178377E-01 a      1276     1    21     2     1
 -3.5563049023678378E-01 a      1277     1    21     2     2
 -8.1217028723882378E-03 a      1278     1    21     2     3
 -2.5213606771538599E-01 a      1279     1    21     2     4
 -2.7430107211138199E-01 a      1280     1    21     2     5
  8.0469980887614284E-02 a      1281     1    21     2     6
  1.3160470755378814E-01 a      1282     1    21     2     7
  3.1289872424728515E-01 a      1283     1    21     2     8
  1.6074479132547079E-01 a      1284     1    21     2     9
 -2.8282304310106976E-01 a      1285     1    21     2    10
 -3.5540407970077925E-01 a      1286     1    21     2    11
 -4.6916568545377496E-01 a      1287     1    21     2    12
  9.9593666265802502E-02 a      1288     1    21     2    13
 -3.2657870285265739E-01 a      1289     1    21     2    14
  3.9515344030901073E-01 a      1290     1    21     2    15
  1.7439109518519849E-01 a      1291     1    21     2    16
 -1.5202698412594440E-01 a      1292     1    21     2    17
  6.9328503363159336E-02 a      1293     1    21     2    18
  1.8349360979065066E-01 a      1294     1    21     2    19
 -1.5538845665084633E-01 a      1295     1    21     2    20
 -2.1592053893278573E-01 a      1296     1    21     2    21
 -2.1751647123661966E-01 a      1297     1    21     2    22
  1.5376706961286712E-01 a      1298     1    21     2    23
 -5.6688759167689555E-02 a      1299     1    21     2    24
 -3.3158335235376818E-01 a      1300     1    21     2    25
 -2.0863574115159458E-01 a      1301     1    22     2     1
 -1.4026482492078346E-01 a      1302     1    22     2     2
 -2.7698824255558285E-01 a      1303     1    22     2     3
 -2.0758901123801182E-01 a      1304     1    22     2     4
  5.7260772955408760E-02 a      1305     1    22     2     5
 -2.1136460218066891E-03 a      1306     1    22     2     6
  5.7039939722175692E-02 a      1307     1    22     2     7
 -4.1891827404550797E-01 a      1308     1    22     2     8
 -1.8677028690061831E-01 a      1309     1    22     2     9
 -2.8456874737421883E-01 a      1310     1    22     2    10
 -2.7392204015341676E-01 a      1311     1    22     2    11
  1.0435884961503550E-01 a      1312     1    22     2    12
  9.3035149113665616E-02 a      1313     1    22     2    13
  2.0767466375624641E-01 a      1314     1    22     2    14
 -2.2761670256035077E-01 a      1315     1    22     2    15
  6.0439673023354373E-02 a      1316     1    22     2    16
  1.4928782433884918E-01 a      1317     1    22     2    17
 -2.1029900224837519E-01 a      1318     1    22     2    18
  4.4436783928610696E-02 a      1319     1    22     2    19
  1.8731845024408292E-01 a      1320     1    22     2    20
  1.8510720310075612E-01 a      1321     1    22     2    21
 -3.6412876999555988E-01 a      1322     1    22     2    22
 -1.7334230809322740E-01 a      1323     1    22     2    23
 -2.4085385994113165E-01 a      1324     1    22     2    24
  8.2996666416684461E-02 a      1325     1    22     2    25
 -1.4874406515288699E-01 a      1326     1    23     2     1
 -1.9451298765559061E-01 a      1327     1    23     2     2
 -1.7543649337889830E-01 a      1328     1    23     2     3
  7.4869307053875483E-02 a      1329     1    23     2     4
 -2.5574480133194843E-01 a      1330     1    23     2     5
 -5.3619831299141489E-02 a      1331     1    23     2     6
  1.1685826321748695E-01 a      1332     1    23     2     7
  1.9458709246656025E-01 a      1333     1    23     2     8
  4.1664547252125006E-01 a      1334     1    23     2     9
 -1.6367716980538013E-01 a      1335     1    23     2    10
 -2.9805107084513921E-01 a      1336     1    23     2    11
  7.0056224044852081E-02 a      1337     1    23     2    12
  2.9280241464985907E-01 a      1338     1    23     2    13
  3.0371875538930915E-01 a      1339     1    23     2    14
  1.0276408519881408E-01 a      1340     1    23     2    15
 -2.4838780532816643E-01 a      1341     1    23     2    16
 -1.3871883956368569E-01 a      1342     1    23     2    17
  6.1734030911629401E-03 a      1343     1    23     2    18
  1.2295228854074858E-01 a      1344     1    23     2    19
 -3.5098861628276157E-01 a      1345     1    23     2    20
  1.0476645883016591E-01 a      1346     1    23     2    21
 -1.9968944856114446E-01 a      1347     1    23     2    22
 -7.8729315666999145E-02 a      1348     1    23     2    23
  7.4432800034490432E-02 a      1349     1    23     2    24
 -2.3933917125389922E-01 a      1350     1    23     2    25
  2.2546802277780317E-01 a      1351     1    24     2     1
  6.3172979880106242E-02 a      1352     1    24     2     2
 -2.6327233269094719E-01 a      1353     1    24     2     3
  2.1693074931554239E-04 a      1354     1    24     2     4
 -8.4808018373211849E-02 a      1355     1    24     2     5
  4.6878036523996763E-01 a      1356     1    24     2     6
  6.9762011543041028E-02 a      1357     1    24     2     7
  5.1673703378118808E-02 a      1358     1    24     2     8
 -1.6972516559024994E-01 a      1359     1    24     2     9
  4.1812983872466888E-02 a      1360     1    24     2    10
  5.5769183834293710E-02 a      1361     1    24     2    11
  2.9007332537598435E-01 a      1362     1    24     2    12
  3.6972599781714616E-01 a      1363     1    24     2    13
  3.6282994057016749E-01 a      1364     1    24     2    14
 -3.1079373939111377E-01 a      1365     1    24     2    15
  2.8989851880753220E-01 a      1366     1    24     2    16
  3.3001004952806257E-01 a      1367     1    24     2    17
 -3.3735106132938258E-01 a      1368     1    24     2    18
 -2.8990443502477092E-01 a      1369     1    24     2    19
 -1.2323189107752647E-01 a      1370     1    24     2    20
 -8.5568175504245808E-02 a      1371     1    24     2    21
  6.7107506135321918E-02 a      1372     1    24     2    22
  1.7315347755775126E-01 a      1373     1    24     2    23
  3.1022286171031443E-01 a      1374     1    24     2    24
  2.3581755172648899E-01 a      1375     1    24     2    25
 -2.7968424879045878E-01 a      1376     1    25     2     1
 -2.4311926385464158E-01 a      1377     1    25     2     2
  3.9140077260078343E-02 a      1378     1    25     2     3
 -1.7281078200573002E-01 a      1379     1    25     2     4
 -3.3522081399406295E-01 a      1380     1    25     2     5
  2.6260815849728092E-01 a      1381     1    25     2     6
  1.6814734175836527E-01 a      1382     1    25     2     7
 -1.0246183871129928E-01 a      1383     1    25     2     8
  1.3018576588371195E-01 a      1384     1    25     2     9
  4.2801906674844081E-01 a      1385     1    25     2    10
 -4.1297008866653058E-02 a      1386     1    25     2    11
 -2.7358419231421363E-02 a      1387     1    25     2    12
 -3.1736603724739731E-01 a      1388     1    25     2    13
  7.9049758576130169E-02 a      1389     1    25     2    14
  2.5072453401759228E-02 a      1390     1    25     2    15
  4.4511474765773513E-03 a      1391     1    25     2    16
 -2.9974887627893487E-01 a      1392     1    25     2    17
 -1.8921830152820621E-01 a      1393     1    25     2    18
 -1.4816963575865721E-01 a      1394     1    25     2    19
  2.9044118641370087E-01 a      1395     1    25     2    20
 -3.8797518846220258E-01 a      1396     1    25     2    21
  2.4916880601429348E-01 a      1397     1    25     2    22
 -1.8897800288173339E-01 a      1398     1    25     2    23
 -4.6158870659888596E-01 a      1399     1    25     2    24
 -2.4783929970753857E-01 a      1400     1    25     2    25
 -2.1667457415819220E-02 b      1401     2     1
 -1.4492131993349586E-01 b      1402     2     2
 -3.3580591881925387E-02 b      1403     2     3
 -1.6925101945172988E-01 b      1404     2     4
  6.5721856733343256E-02 b      1405     2     5
 -6.0644727066244700E-02 b      1406     2     6
  9.8961355192112965E-02 b      1407     2     7
 -8.0482067557873349E-02 b      1408     2     8
  2.2515451953556784E-01 b      1409     2     9
  2.7114025696622430E-02 b      1410     2    10
 -1.3305245636907131E-01 b      1411     2    11
 -4.4599719795477527E-02 b      1412     2    12
 -3.2924837276456023E-02 b      1413     2    13
  1.4195542493821184E-01 b      1414     2    14
  8.3745761309872019E-02 b      1415     2    15
  1.0296069035937097E-01 b      1416     2    16
  2.2512934400209624E-02 b      1417     2    17
  7.3430167368837729E-02 b      1418     2    18
  7.6738524736772951E-02 b      1419     2    19
 -1.3936878190434418E-01 b      1420     2    20
  1.5464981107725362E-01 b      1421     2    21
 -1.1238035827255047E-01 b      1422     2    22
 -2.9791698855092213E-03 b      1423     2    23
  1.3843323403068776E-02 b      1424     2    24
 -2.9181335342339281E-02 b      1425     2    25
 -6.3766767485097609E-01 a      1426     2     1     3     1
  7.5510179658067211E-01 a      1427     2     2     3     1
  6.1740808614154397E-01 a      1428     2     3     3     1
  7.5371665953004185E-01 a      1429     2     4     3     1
 -1.0036882407184124E+00 a      1430     2     5     3     1
 -9.3714845148207127E-01 a      1431     2     6     3     1
  6.2097992427235627E-01 a      1432     2     7     3     1
  2.0196098318305356E-01 a      1433     2     8     3     1
 -4.2000915217749529E-01 a      1434     2     9     3     1
 -4.2946616997901260E-01 a      1435     2    10     3     1
 -1.5208664232833408E-01 a      1436     2    11     3     1
 -9.2433525583681275E-01 a      1437     2    12     3     1
  7.7482431913958294E-01 a      1438     2    13     3     1
  1.5786815891120401E-01 a      1439     2    14     3     1
 -2.4758077569737924E-01 a      1440     2    15     3     1
  2.7611605543194589E-01 a      1441     2    16     3     1
  1.3852940548316142E-01 a      1442     2    17     3     1
 -3.9672411344581671E-01 a      1443     2    18     3     1
 -4.6346722559246278E-01 a      1444     2    19     3     1
  2.2391713887331063E-01 a      1445     2    20     3     1
 -2.1032936633918431E-01 a      1446     2    21     3     1
 -1.2129674466903061E-01 a      1447     2    22     3     1
  5.2921989771280986E-01 a      1448     2    23     3     1
 -6.6464818380431190E-01 a      1449     2    24     3     1
  8.1183346326124517E-01 a      1450     2    25     3     1
  5.2960983504779763E-02 b      1451     3     1
