################################################################################
# Neural network connection values (weights and biases).
################################################################################
# Col  Name       Description
################################################################################
# 1    connection Neural network connection value.
# 2    t          Connection type (a = weight, b = bias).
# 3    index      Index enumerating weights.
# 4    l_s        Starting point layer (end point layer for biases).
# 5    n_s        Starting point neuron in starting layer (end point neuron for biases).
# 6    l_e        End point layer.
# 7    n_e        End point neuron in end layer.
################################################################################
#                      1 2         3     4     5     6     7
#             connection t     index   l_s   n_s   l_e   n_e
############################################################
  6.1904489468132562E-01 a         1     0     1     1     1
  1.4751603240672403E-01 a         2     0     1     1     2
 -1.9655136381427948E-01 a         3     0     1     1     3
  2.4204007317446610E-01 a         4     0     1     1     4
  3.4518566599760436E-02 a         5     0     1     1     5
  4.5660028923739721E-01 a         6     0     1     1     6
 -1.3705039135133695E-01 a         7     0     1     1     7
 -2.7617676173845340E-01 a         8     0     1     1     8
  1.6687016076159003E-01 a         9     0     1     1     9
  2.5916710181024333E-01 a        10     0     1     1    10
 -2.0948472386516276E-01 a        11     0     1     1    11
  1.3309175954755609E-01 a        12     0     1     1    12
  3.7880778230947615E-01 a        13     0     1     1    13
  3.4169125213587642E-01 a        14     0     1     1    14
  2.5948578751615031E-01 a        15     0     1     1    15
  2.4041964373161243E-01 a        16     0     1     1    16
  3.7501034192582237E-02 a        17     0     1     1    17
 -3.8898447784213974E-01 a        18     0     1     1    18
 -1.1342630127393663E-01 a        19     0     1     1    19
 -3.3168517955958132E-01 a        20     0     1     1    20
  6.1758971087724164E-02 a        21     0     1     1    21
  3.4234354686043390E-02 a        22     0     1     1    22
  6.8128446803504217E-02 a        23     0     1     1    23
  1.3455259540354253E-01 a        24     0     1     1    24
 -2.1594762722520813E-01 a        25     0     1     1    25
 -2.4342043428020887E-01 a        26     0     2     1     1
 -2.9035100579593875E-01 a        27     0     2     1     2
 -1.5107634797404784E-01 a        28     0     2     1     3
 -5.0228497908134562E-01 a        29     0     2     1     4
  5.1053640803143181E-02 a        30     0     2     1     5
 -3.2056566893228594E-01 a        31     0     2     1     6
  3.6677043395928033E-02 a        32     0     2     1     7
  2.0541990272148236E-01 a        33     0     2     1     8
 -3.2864241585747733E-01 a        34     0     2     1     9
 -4.6923479762494630E-01 a        35     0     2     1    10
  2.4564711222955438E-01 a        36     0     2     1    11
 -1.4641970046611238E-01 a        37     0     2     1    12
 -4.2815281697458418E-01 a        38     0     2     1    13
 -5.1956023380943139E-01 a        39     0     2     1    14
 -1.5113588706752673E-01 a        40     0     2     1    15
 -2.2776461674876261E-01 a        41     0     2     1    16
  2.1575991446661459E-03 a        42     0     2     1    17
  5.9525519616814038E-01 a        43     0     2     1    18
 -1.9505994735319315E-01 a        44     0     2     1    19
  4.5690360233037415E-02 a        45     0     2     1    20
 -1.8447850256157791E-01 a        46     0     2     1    21
  1.2846743142233730E-01 a        47     0     2     1    22
 -1.1714123044339693E-01 a        48     0     2     1    23
 -1.0865227795185908E-01 a        49     0     2     1    24
 -8.1374369624226950E-03 a        50     0     2     1    25
 -5.0171405453623752E-01 a        51     0     3     1     1
 -1.7927345725447288E-01 a        52     0     3     1     2
  1.6231385450078423E-01 a        53     0     3     1     3
 -9.5742075311413946E-02 a        54     0     3     1     4
 -2.8653634678572831E-01 a        55     0     3     1     5
 -8.1659737956296358E-02 a        56     0     3     1     6
  2.1916079195907184E-01 a        57     0     3     1     7
  3.4377156779835649E-01 a        58     0     3     1     8
 -7.0547280890033343E-02 a        59     0     3     1     9
 -1.3412468672711023E-01 a        60     0     3     1    10
 -3.8384721508498726E-02 a        61     0     3     1    11
  3.7759213731423952E-03 a        62     0     3     1    12
 -2.8271853144911158E-01 a        63     0     3     1    13
 -6.0593787462152500E-02 a        64     0     3     1    14
  1.2215741519198996E-01 a        65     0     3     1    15
  1.1013533156584704E-01 a        66     0     3     1    16
  1.1579155889790672E-01 a        67     0     3     1    17
  2.8997715628474763E-01 a        68     0     3     1    18
  3.0834112476686648E-01 a        69     0     3     1    19
  3.7380827210214929E-01 a        70     0     3     1    20
 -2.8904415409465012E-01 a        71     0     3     1    21
  3.0904328900432283E-02 a        72     0     3     1    22
 -4.8585790164414516E-01 a        73     0     3     1    23
  3.7177892877424713E-02 a        74     0     3     1    24
  4.5600999826940047E-01 a        75     0     3     1    25
  1.0617436844608498E-01 a        76     0     4     1     1
  3.1179834538076473E-01 a        77     0     4     1     2
  3.0484348120077043E-01 a        78     0     4     1     3
  5.4488171479647229E-01 a        79     0     4     1     4
  2.6391482693854618E-01 a        80     0     4     1     5
  7.4904454807040902E-02 a        81     0     4     1     6
 -1.9952024307282190E-01 a        82     0     4     1     7
 -2.6727598733164298E-01 a        83     0     4     1     8
  1.7989684515474699E-01 a        84     0     4     1     9
  7.5161209176591776E-02 a        85     0     4     1    10
 -1.6017125944955821E-01 a        86     0     4     1    11
 -3.3922460368143370E-03 a        87     0     4     1    12
  5.1013349151824272E-01 a        88     0     4     1    13
  3.3764995148022448E-01 a        89     0     4     1    14
 -2.8389906990611141E-01 a        90     0     4     1    15
  1.2662036470839561E-01 a        91     0     4     1    16
  1.2867424227518650E-02 a        92     0     4     1    17
 -7.3732534197045063E-01 a        93     0     4     1    18
  1.1439766031152225E-01 a        94     0     4     1    19
 -1.8143858171263774E-01 a        95     0     4     1    20
  4.9479572243228931E-01 a        96     0     4     1    21
 -3.4010057334556476E-01 a        97     0     4     1    22
  4.7708028266313446E-01 a        98     0     4     1    23
 -2.2188824244174940E-01 a        99     0     4     1    24
 -3.5176590411015207E-01 a       100     0     4     1    25
 -1.8422601801235389E-01 a       101     0     5     1     1
  2.9223536035632558E-01 a       102     0     5     1     2
 -1.1560454049751853E-01 a       103     0     5     1     3
 -1.2947986019149457E-01 a       104     0     5     1     4
  4.1273066623271050E-02 a       105     0     5     1     5
 -3.8549524955503034E-01 a       106     0     5     1     6
 -2.5277723313571276E-01 a       107     0     5     1     7
  8.6961198268922388E-02 a       108     0     5     1     8
  1.6723155225749728E-01 a       109     0     5     1     9
 -2.9019318727961169E-02 a       110     0     5     1    10
 -3.9037217282032376E-02 a       111     0     5     1    11
  1.1608286267370859E-02 a       112     0     5     1    12
 -1.3250509434776514E-01 a       113     0     5     1    13
  6.6505060179641792E-02 a       114     0     5     1    14
 -6.5948046916865385E-02 a       115     0     5     1    15
 -1.5151517559252581E-01 a       116     0     5     1    16
 -1.7502977489167383E-02 a       117     0     5     1    17
  2.2639709995679544E-01 a       118     0     5     1    18
 -1.5904025464187899E-01 a       119     0     5     1    19
  1.6026701376046212E-01 a       120     0     5     1    20
 -2.4074378771458152E-01 a       121     0     5     1    21
 -8.9727093450352513E-02 a       122     0     5     1    22
  1.2246666681207619E-01 a       123     0     5     1    23
 -2.6734822267949704E-01 a       124     0     5     1    24
 -2.4224192448826603E-02 a       125     0     5     1    25
 -4.7404248942686973E-02 a       126     0     6     1     1
 -1.2847369267865713E-02 a       127     0     6     1     2
 -1.7669314337013631E-02 a       128     0     6     1     3
 -5.5938197525186355E-02 a       129     0     6     1     4
  4.8357872670422318E-02 a       130     0     6     1     5
  9.0812686259210296E-02 a       131     0     6     1     6
  2.7057998188492016E-01 a       132     0     6     1     7
  9.3969331283125110E-02 a       133     0     6     1     8
  5.2085110061983936E-02 a       134     0     6     1     9
 -1.2999028952593525E-01 a       135     0     6     1    10
  4.7420222719480577E-02 a       136     0     6     1    11
  1.3928952139912776E-01 a       137     0     6     1    12
 -9.6287740947615469E-02 a       138     0     6     1    13
  1.9408145257398038E-01 a       139     0     6     1    14
  5.9653456654667925E-02 a       140     0     6     1    15
  1.8326174985398779E-03 a       141     0     6     1    16
 -3.7894436395107062E-01 a       142     0     6     1    17
 -1.4466357244141621E-02 a       143     0     6     1    18
 -3.3794450860835233E-02 a       144     0     6     1    19
 -2.4199148425901897E-02 a       145     0     6     1    20
 -1.8294446539867983E-02 a       146     0     6     1    21
  7.8356018547436748E-02 a       147     0     6     1    22
 -3.2936167256528998E-01 a       148     0     6     1    23
  9.6570055369691127E-02 a       149     0     6     1    24
  6.0176087496851292E-02 a       150     0     6     1    25
  3.3363522443035426E-01 a       151     0     7     1     1
 -1.9009699323158134E-02 a       152     0     7     1     2
  2.1155916631101809E-01 a       153     0     7     1     3
  1.3142307551725163E-01 a       154     0     7     1     4
  1.0416890076392941E-01 a       155     0     7     1     5
  8.8976230252571925E-02 a       156     0     7     1     6
  7.8929626211363138E-02 a       157     0     7     1     7
  2.8382066497283802E-02 a       158     0     7     1     8
  3.1647590546881211E-04 a       159     0     7     1     9
 -1.3192408180606588E-01 a       160     0     7     1    10
 -3.2804336934603315E-02 a       161     0     7     1    11
 -1.0365757436743270E-01 a       162     0     7     1    12
  1.7713629564026201E-01 a       163     0     7     1    13
 -4.2613570854584631E-01 a       164     0     7     1    14
  1.3591367025910200E-01 a       165     0     7     1    15
  3.3540141162188075E-01 a       166     0     7     1    16
  8.9896629058073010E-02 a       167     0     7     1    17
 -5.9031471012097970E-02 a       168     0     7     1    18
 -2.6245214710559517E-01 a       169     0     7     1    19
 -5.1170511446622646E-01 a       170     0     7     1    20
  4.6365217777919859E-01 a       171     0     7     1    21
  3.4622614487659958E-01 a       172     0     7     1    22
  6.5478965849820658E-01 a       173     0     7     1    23
  3.0482746108466174E-01 a       174     0     7     1    24
  1.1995256841271283E-01 a       175     0     7     1    25
 -1.7161882456682456E-01 a       176     0     8     1     1
 -1.3719067626385698E-01 a       177     0     8     1     2
  2.6046567918257307E-01 a       178     0     8     1     3
  1.5315939725852085E-01 a       179     0     8     1     4
 -1.8667324692309004E-01 a       180     0     8     1     5
  1.9788227081357526E-01 a       181     0     8     1     6
  3.2414942851881068E-01 a       182     0     8     1     7
  1.3641914745017689E-01 a       183     0     8     1     8
  5.7519947407288330E-02 a       184     0     8     1     9
  1.3967390737436960E-01 a       185     0     8     1    10
  4.7078474723015618E-01 a       186     0     8     1    11
  2.0814277040174842E-02 a       187     0     8     1    12
  2.7123084507599489E-02 a       188     0     8     1    13
 -3.7439104226332581E-01 a       189     0     8     1    14
  2.8358677965005297E-01 a       190     0     8     1    15
 -2.3434936828395062E-01 a       191     0     8     1    16
  2.9115300978757191E-01 a       192     0     8     1    17
  4.7501598422582325E-01 a       193     0     8     1    18
 -7.7863134892518756E-03 a       194     0     8     1    19
 -2.3517820023765351E-01 a       195     0     8     1    20
  7.7958457718706964E-02 a       196     0     8     1    21
  1.1159951007272355E-01 a       197     0     8     1    22
 -9.0107293718887371E-02 a       198     0     8     1    23
 -1.2691660521702258E-01 a       199     0     8     1    24
  4.6675542478845622E-01 a       200     0     8     1    25
 -9.1555231066937900E-02 a       201     0     9     1     1
 -5.1154329300185555E-02 a       202     0     9     1     2
 -2.1052184776365729E-01 a       203     0     9     1     3
 -5.5161731231300346E-02 a       204     0     9     1     4
 -2.2321268915971126E-01 a       205     0     9     1     5
  5.3465877313526332E-02 a       206     0     9     1     6
  1.0163753606426192E-01 a       207     0     9     1     7
 -3.9621000689750629E-01 a       208     0     9     1     8
 -4.4688489549272355E-02 a       209     0     9     1     9
 -8.7551606739808260E-02 a       210     0     9     1    10
 -2.7043836623444695E-01 a       211     0     9     1    11
 -1.1475320441182361E-01 a       212     0     9     1    12
 -1.5895629575993434E-01 a       213     0     9     1    13
 -9.2687652542712898E-02 a       214     0     9     1    14
  1.5683959629770625E-02 a       215     0     9     1    15
 -2.1521443599301804E-01 a       216     0     9     1    16
  1.1478965028013736E-01 a       217     0     9     1    17
 -4.0079638544512741E-01 a       218     0     9     1    18
 -1.9609691342772981E-01 a       219     0     9     1    19
 -1.0790881657173652E-01 a       220     0     9     1    20
  1.1743786882313258E-01 a       221     0     9     1    21
  3.6893267876504397E-02 a       222     0     9     1    22
  1.3969086316277415E-01 a       223     0     9     1    23
  1.7557689895840858E-01 a       224     0     9     1    24
 -2.5278786781868834E-01 a       225     0     9     1    25
 -2.2869464643698578E-01 a       226     0    10     1     1
 -7.4821426666800223E-02 a       227     0    10     1     2
 -1.4336990679371633E-01 a       228     0    10     1     3
  7.2202254740895255E-02 a       229     0    10     1     4
 -2.7043470894177496E-01 a       230     0    10     1     5
 -1.9364609885669681E-02 a       231     0    10     1     6
  1.3430425660692105E-01 a       232     0    10     1     7
  2.6024406564807212E-01 a       233     0    10     1     8
 -1.9743339398150953E-01 a       234     0    10     1     9
 -1.4673256928568351E-01 a       235     0    10     1    10
  2.5914768484679700E-02 a       236     0    10     1    11
  2.6988695178634997E-01 a       237     0    10     1    12
 -4.3149746503504817E-02 a       238     0    10     1    13
  3.8778067458516458E-01 a       239     0    10     1    14
 -1.1794702192217468E-01 a       240     0    10     1    15
  1.6166534801130600E-01 a       241     0    10     1    16
  1.5949079596477403E-01 a       242     0    10     1    17
 -3.0494967417020835E-01 a       243     0    10     1    18
 -4.3709157064188577E-02 a       244     0    10     1    19
  4.6937973730923693E-01 a       245     0    10     1    20
 -4.0364332489896243E-01 a       246     0    10     1    21
 -3.7326088061665380E-01 a       247     0    10     1    22
 -1.2203316683964804E-01 a       248     0    10     1    23
 -1.5041650532478842E-01 a       249     0    10     1    24
 -1.7680731815058351E-01 a       250     0    10     1    25
 -9.5812579561049285E-02 a       251     0    11     1     1
  1.6975050395274333E-01 a       252     0    11     1     2
  3.4853378097453097E-01 a       253     0    11     1     3
 -1.0094070337192175E-01 a       254     0    11     1     4
 -8.3211893863600322E-03 a       255     0    11     1     5
  5.1812576330229690E-02 a       256     0    11     1     6
  3.2197823415820474E-03 a       257     0    11     1     7
  6.3693261256101801E-03 a       258     0    11     1     8
 -2.5412589774169103E-01 a       259     0    11     1     9
 -4.5425958842153014E-01 a       260     0    11     1    10
 -1.4116691261724488E-02 a       261     0    11     1    11
 -3.0455585657562862E-02 a       262     0    11     1    12
  3.5483583440674693E-01 a       263     0    11     1    13
 -1.0440294128814800E-01 a       264     0    11     1    14
 -2.5436855204468731E-02 a       265     0    11     1    15
  1.2936374678057336E-01 a       266     0    11     1    16
  4.2729770589804628E-01 a       267     0    11     1    17
  3.2668242968778721E-01 a       268     0    11     1    18
  1.0386586848549349E-01 a       269     0    11     1    19
  2.7179705229945184E-01 a       270     0    11     1    20
  1.4364970514118822E-01 a       271     0    11     1    21
 -3.3676294922297201E-01 a       272     0    11     1    22
  2.0708009844835451E-01 a       273     0    11     1    23
 -3.6104184976536480E-01 a       274     0    11     1    24
  1.2344317812144302E-01 a       275     0    11     1    25
 -1.0284059958458402E-01 a       276     0    12     1     1
  1.7795049629033891E-01 a       277     0    12     1     2
 -1.5931627858548777E-01 a       278     0    12     1     3
 -2.4334913900298230E-01 a       279     0    12     1     4
  1.5566947094913669E-01 a       280     0    12     1     5
 -1.1118845036048183E-01 a       281     0    12     1     6
 -4.3419060662514336E-01 a       282     0    12     1     7
  2.1962951908040321E-01 a       283     0    12     1     8
  2.9154597162786994E-01 a       284     0    12     1     9
  7.9420237747159270E-02 a       285     0    12     1    10
 -3.9508608556280655E-01 a       286     0    12     1    11
 -2.4175340059226605E-01 a       287     0    12     1    12
  1.8320137804653613E-01 a       288     0    12     1    13
  1.9902025052545469E-01 a       289     0    12     1    14
  1.0555033404792669E-01 a       290     0    12     1    15
  8.8633582778941247E-02 a       291     0    12     1    16
 -1.9236872343583331E-02 a       292     0    12     1    17
  3.6624559012037455E-01 a       293     0    12     1    18
  3.4304030876719521E-01 a       294     0    12     1    19
 -1.0028768602613645E-01 a       295     0    12     1    20
 -1.0335958152059273E-01 a       296     0    12     1    21
  3.2958147403035792E-02 a       297     0    12     1    22
  4.2750959671989643E-02 a       298     0    12     1    23
  1.9456820076853185E-01 a       299     0    12     1    24
 -1.2729605974136668E-01 a       300     0    12     1    25
  5.8755246377399810E-02 a       301     0    13     1     1
 -2.5891455227988103E-01 a       302     0    13     1     2
 -3.3047750605088738E-01 a       303     0    13     1     3
  4.0224895689236440E-01 a       304     0    13     1     4
  1.3346530428862338E-01 a       305     0    13     1     5
 -7.8120985624111960E-02 a       306     0    13     1     6
 -1.8039169549196671E-01 a       307     0    13     1     7
  7.7826195140023077E-02 a       308     0    13     1     8
  2.4709341665489773E-01 a       309     0    13     1     9
  1.8186172655868676E-01 a       310     0    13     1    10
  1.1245018105331341E-01 a       311     0    13     1    11
  1.0525289124223522E-01 a       312     0    13     1    12
 -3.8293060746958631E-02 a       313     0    13     1    13
  9.4381302782575102E-02 a       314     0    13     1    14
 -3.8882045230549939E-01 a       315     0    13     1    15
 -1.7907758155359579E-01 a       316     0    13     1    16
 -5.6412097988733734E-01 a       317     0    13     1    17
  1.2081148081256249E-01 a       318     0    13     1    18
 -1.5911923726609885E-02 a       319     0    13     1    19
  9.8407516757244337E-02 a       320     0    13     1    20
 -1.1256919223299059E-02 a       321     0    13     1    21
  4.7763753182162735E-02 a       322     0    13     1    22
 -2.9022980346481347E-01 a       323     0    13     1    23
  1.2199770357629640E-02 a       324     0    13     1    24
  1.5323833415621302E-01 a       325     0    13     1    25
  3.8940936791576386E-01 a       326     0    14     1     1
 -1.3428250144881448E-01 a       327     0    14     1     2
 -5.0424486812536716E-02 a       328     0    14     1     3
  2.3230276552213630E-01 a       329     0    14     1     4
  6.1370029353606124E-04 a       330     0    14     1     5
  1.6262322374457336E-01 a       331     0    14     1     6
 -8.3099308801399874E-02 a       332     0    14     1     7
 -1.1777086663668804E-01 a       333     0    14     1     8
 -3.4506495806040416E-01 a       334     0    14     1     9
 -3.8132808043891589E-02 a       335     0    14     1    10
  1.1239405740759377E-01 a       336     0    14     1    11
  3.0960526591101134E-01 a       337     0    14     1    12
  1.6237226556152770E-02 a       338     0    14     1    13
  4.8458508726042494E-02 a       339     0    14     1    14
 -3.8044888866111938E-02 a       340     0    14     1    15
 -4.0475193587916639E-02 a       341     0    14     1    16
 -1.0692181575457518E-01 a       342     0    14     1    17
  1.3480563771120196E-01 a       343     0    14     1    18
 -1.2491889514079496E-01 a       344     0    14     1    19
 -1.1895900970179181E-01 a       345     0    14     1    20
 -1.3662879057467436E-01 a       346     0    14     1    21
 -2.6503849158606759E-03 a       347     0    14     1    22
 -2.9577588275685701E-01 a       348     0    14     1    23
 -1.7228275606689389E-01 a       349     0    14     1    24
  3.0485962295072382E-02 a       350     0    14     1    25
  2.5606084519316530E-01 a       351     0    15     1     1
  1.9168840755462196E-01 a       352     0    15     1     2
  8.9259085775956565E-02 a       353     0    15     1     3
 -3.9770633189872029E-01 a       354     0    15     1     4
 -2.3021942334649348E-01 a       355     0    15     1     5
 -1.7710951169878411E-01 a       356     0    15     1     6
 -1.6153836720941142E-01 a       357     0    15     1     7
  1.3515354121814319E-01 a       358     0    15     1     8
 -1.4843616905691198E-01 a       359     0    15     1     9
  2.9316741676135355E-01 a       360     0    15     1    10
 -2.3869560374851836E-01 a       361     0    15     1    11
  1.5765269490642100E-01 a       362     0    15     1    12
  1.8736094248876312E-01 a       363     0    15     1    13
 -1.5241078342955408E-01 a       364     0    15     1    14
  2.9934412573793895E-01 a       365     0    15     1    15
  1.7736085134468596E-01 a       366     0    15     1    16
  3.3022002603223521E-01 a       367     0    15     1    17
 -4.8008327718765148E-02 a       368     0    15     1    18
 -2.8402087360968192E-01 a       369     0    15     1    19
  1.5801972983210569E-01 a       370     0    15     1    20
 -1.6873128657274197E-01 a       371     0    15     1    21
 -1.1334023995148676E-01 a       372     0    15     1    22
 -5.9214712761993540E-02 a       373     0    15     1    23
 -1.7428182551186559E-02 a       374     0    15     1    24
 -2.9921257876902779E-01 a       375     0    15     1    25
 -1.8859923996802680E-01 a       376     0    16     1     1
  2.7930449306593327E-02 a       377     0    16     1     2
  4.1499079579268364E-02 a       378     0    16     1     3
  2.7393880652140712E-01 a       379     0    16     1     4
  8.0053328981770713E-02 a       380     0    16     1     5
  5.4984139658405581E-02 a       381     0    16     1     6
  3.1391485044167007E-02 a       382     0    16     1     7
 -7.3506375328218229E-02 a       383     0    16     1     8
  1.2544824173120672E-01 a       384     0    16     1     9
 -1.5217179084671101E-01 a       385     0    16     1    10
  1.9134610521420795E-01 a       386     0    16     1    11
  1.0293491900418091E-01 a       387     0    16     1    12
  2.3608613839236212E-02 a       388     0    16     1    13
 -1.3110445331308365E-01 a       389     0    16     1    14
  2.3630009378279576E-01 a       390     0    16     1    15
  1.5735204209544146E-01 a       391     0    16     1    16
 -3.8413025122455619E-01 a       392     0    16     1    17
 -6.5931167671109472E-02 a       393     0    16     1    18
  8.6271369949658228E-02 a       394     0    16     1    19
  6.2694161774080021E-02 a       395     0    16     1    20
  3.3100814382068008E-02 a       396     0    16     1    21
  1.1540372650156196E-01 a       397     0    16     1    22
 -1.8905290608240419E-01 a       398     0    16     1    23
 -5.7837635385397761E-02 a       399     0    16     1    24
 -2.0127885529379663E-01 a       400     0    16     1    25
 -2.3105462107301647E-01 a       401     0    17     1     1
 -1.2391865450428594E-01 a       402     0    17     1     2
 -1.3951904802690995E-01 a       403     0    17     1     3
 -7.7676885577063773E-02 a       404     0    17     1     4
  1.1169790427317187E-01 a       405     0    17     1     5
 -1.3956283827753638E-01 a       406     0    17     1     6
 -3.5240673512006049E-01 a       407     0    17     1     7
 -1.6937514574074991E-01 a       408     0    17     1     8
 -3.0625425606906772E-03 a       409     0    17     1     9
  6.3475983423079224E-02 a       410     0    17     1    10
  1.3438564238221051E-01 a       411     0    17     1    11
  1.3729206802349262E-02 a       412     0    17     1    12
  2.3462005805498658E-02 a       413     0    17     1    13
  1.4984465777440834E-01 a       414     0    17     1    14
 -2.2600443263689618E-01 a       415     0    17     1    15
 -7.7753321269233844E-02 a       416     0    17     1    16
 -1.4439657108307719E-01 a       417     0    17     1    17
  1.9439509768629779E-01 a       418     0    17     1    18
 -2.2125668968347098E-02 a       419     0    17     1    19
  5.6030100366411560E-02 a       420     0    17     1    20
  8.4857051927527946E-02 a       421     0    17     1    21
 -1.4181771275339677E-01 a       422     0    17     1    22
 -1.9639604886479220E-01 a       423     0    17     1    23
 -7.8302973399784592E-02 a       424     0    17     1    24
  6.5920002018107562E-02 a       425     0    17     1    25
  4.6071597631581487E-02 a       426     0    18     1     1
 -5.9895412397979943E-02 a       427     0    18     1     2
  2.7848642918528416E-01 a       428     0    18     1     3
 -1.7078700936497856E-01 a       429     0    18     1     4
 -1.5119555713608529E-01 a       430     0    18     1     5
  9.7547168880821253E-03 a       431     0    18     1     6
 -3.4476931007103848E-02 a       432     0    18     1     7
  2.7358328864450450E-02 a       433     0    18     1     8
 -1.2944331820942306E-01 a       434     0    18     1     9
  1.0604043379228675E-01 a       435     0    18     1    10
  9.5807514333189250E-02 a       436     0    18     1    11
  1.7903297582856306E-01 a       437     0    18     1    12
  1.0404680834089502E-02 a       438     0    18     1    13
 -1.6230056224434330E-01 a       439     0    18     1    14
 -9.2464192681921423E-02 a       440     0    18     1    15
 -7.0500174022125744E-02 a       441     0    18     1    16
 -2.3912373518132016E-01 a       442     0    18     1    17
 -8.2234373332335922E-02 a       443     0    18     1    18
  6.9056695744249941E-02 a       444     0    18     1    19
  5.5771603842646240E-02 a       445     0    18     1    20
  2.2082434787483493E-01 a       446     0    18     1    21
 -1.6010612085769180E-01 a       447     0    18     1    22
  2.0168052003491199E-02 a       448     0    18     1    23
 -1.1762812764759059E-01 a       449     0    18     1    24
  3.3310375420982141E-01 a       450     0    18     1    25
 -8.4269760055869947E-02 a       451     0    19     1     1
  2.2577655617812059E-01 a       452     0    19     1     2
  2.0399581606887909E-01 a       453     0    19     1     3
  2.3562073120089191E-01 a       454     0    19     1     4
  1.8478682189175866E-02 a       455     0    19     1     5
  6.4907894883310335E-02 a       456     0    19     1     6
  1.1717250506918284E-01 a       457     0    19     1     7
  2.9188164389221893E-02 a       458     0    19     1     8
  5.7684899273767423E-02 a       459     0    19     1     9
  1.5141518663558221E-01 a       460     0    19     1    10
  6.1014042804442385E-02 a       461     0    19     1    11
 -5.9725263394751565E-02 a       462     0    19     1    12
  6.9812560961694831E-02 a       463     0    19     1    13
 -1.1235694519558490E-01 a       464     0    19     1    14
 -5.4953962165560637E-02 a       465     0    19     1    15
 -3.8494415599780188E-02 a       466     0    19     1    16
  1.4056824441587257E-01 a       467     0    19     1    17
 -5.2293102945244849E-02 a       468     0    19     1    18
  1.0016936993370326E-01 a       469     0    19     1    19
 -7.1871039978055121E-02 a       470     0    19     1    20
  5.6515622925088521E-02 a       471     0    19     1    21
 -3.0915179091296412E-02 a       472     0    19     1    22
 -1.3992749071778801E-01 a       473     0    19     1    23
  2.2495752364383609E-01 a       474     0    19     1    24
 -7.3929124056586817E-03 a       475     0    19     1    25
  2.1930494244019808E-01 a       476     0    20     1     1
 -2.8693590198258312E-01 a       477     0    20     1     2
 -5.0542556624007684E-01 a       478     0    20     1     3
 -2.9255616322375844E-01 a       479     0    20     1     4
  2.5940303983517532E-01 a       480     0    20     1     5
 -3.0762924458969465E-01 a       481     0    20     1     6
 -7.0672843774684897E-03 a       482     0    20     1     7
 -3.4549161923812427E-01 a       483     0    20     1     8
 -9.3570258761178859E-02 a       484     0    20     1     9
  2.5113622175682970E-01 a       485     0    20     1    10
 -2.2165420603539815E-01 a       486     0    20     1    11
 -5.7544557845032573E-01 a       487     0    20     1    12
  2.4355254501631878E-02 a       488     0    20     1    13
  2.1370447053932809E-01 a       489     0    20     1    14
 -8.1224644683395422E-02 a       490     0    20     1    15
 -6.4223194962906557E-02 a       491     0    20     1    16
  1.0248858914626235E-01 a       492     0    20     1    17
 -9.4663351106388724E-02 a       493     0    20     1    18
  2.3205542772493665E-01 a       494     0    20     1    19
  6.4326129637057783E-01 a       495     0    20     1    20
 -3.0260666643965828E-01 a       496     0    20     1    21
  1.3864081817651799E-01 a       497     0    20     1    22
  2.1352405680157280E-01 a       498     0    20     1    23
  4.7784717008071215E-01 a       499     0    20     1    24
 -6.3733797320637497E-01 a       500     0    20     1    25
  1.2115164500663762E-01 a       501     0    21     1     1
 -1.1948823769907747E-01 a       502     0    21     1     2
  3.3276165936494989E-01 a       503     0    21     1     3
  1.1968102005391604E-01 a       504     0    21     1     4
 -3.5156755422855408E-02 a       505     0    21     1     5
 -2.2185805072727285E-01 a       506     0    21     1     6
 -4.8293836233880921E-02 a       507     0    21     1     7
  5.6995503027679105E-02 a       508     0    21     1     8
 -3.7281110155174235E-01 a       509     0    21     1     9
  2.3144808223452401E-01 a       510     0    21     1    10
 -1.2507274594255910E-01 a       511     0    21     1    11
 -3.8758782464970221E-01 a       512     0    21     1    12
 -1.3112965343801380E-01 a       513     0    21     1    13
 -1.7087425017240621E-01 a       514     0    21     1    14
  4.9628661385965583E-02 a       515     0    21     1    15
 -3.9040037808221528E-01 a       516     0    21     1    16
  4.7006572900903432E-02 a       517     0    21     1    17
  2.4852635159547420E-01 a       518     0    21     1    18
  3.7290386130966197E-01 a       519     0    21     1    19
  7.9519323311273649E-02 a       520     0    21     1    20
  2.1786239324884826E-01 a       521     0    21     1    21
  1.3446620830499204E-01 a       522     0    21     1    22
 -4.0838951245949073E-01 a       523     0    21     1    23
  2.7793843368061211E-01 a       524     0    21     1    24
  5.0838839356685506E-01 a       525     0    21     1    25
  1.6430426310389371E-01 a       526     0    22     1     1
  3.4562486769160128E-02 a       527     0    22     1     2
 -4.4243437268625019E-01 a       528     0    22     1     3
  3.6330403961692537E-01 a       529     0    22     1     4
  1.2144527541984776E-01 a       530     0    22     1     5
 -2.5495707570050130E-01 a       531     0    22     1     6
 -1.7969581883546099E-01 a       532     0    22     1     7
 -5.2221211494007859E-02 a       533     0    22     1     8
  2.8208196800232055E-01 a       534     0    22     1     9
  1.5551500732711140E-01 a       535     0    22     1    10
  1.0375890302141420E-01 a       536     0    22     1    11
  2.5026501580860216E-01 a       537     0    22     1    12
 -7.1240108329693227E-02 a       538     0    22     1    13
  5.0866837774240878E-02 a       539     0    22     1    14
 -1.2692669564856554E-01 a       540     0    22     1    15
  1.9223654869433889E-02 a       541     0    22     1    16
  6.7363279756510352E-02 a       542     0    22     1    17
 -4.9670572221092557E-02 a       543     0    22     1    18
 -5.4432805324062729E-02 a       544     0    22     1    19
 -1.9445355058968657E-02 a       545     0    22     1    20
  1.1154591319288960E-02 a       546     0    22     1    21
 -1.4537374791021276E-03 a       547     0    22     1    22
  1.4189172023292507E-01 a       548     0    22     1    23
 -1.4203496565835236E-01 a       549     0    22     1    24
 -3.0711669737258551E-01 a       550     0    22     1    25
 -1.3494798552569770E-01 a       551     0    23     1     1
  2.7664594154693711E-01 a       552     0    23     1     2
 -1.0205837499021425E-02 a       553     0    23     1     3
  2.0877340702887315E-01 a       554     0    23     1     4
 -8.1191892647332120E-02 a       555     0    23     1     5
  8.2803380361452891E-02 a       556     0    23     1     6
  2.3005927024046025E-01 a       557     0    23     1     7
  1.7614330690141861E-01 a       558     0    23     1     8
  2.8647712670390368E-01 a       559     0    23     1     9
 -1.1416533233621455E-01 a       560     0    23     1    10
  4.4842971626820820E-02 a       561     0    23     1    11
  2.9877457529321716E-01 a       562     0    23     1    12
  5.4578536267254375E-02 a       563     0    23     1    13
  3.8572800912723883E-03 a       564     0    23     1    14
 -1.2573563498250606E-01 a       565     0    23     1    15
  1.4431271823855935E-01 a       566     0    23     1    16
 -2.4897274130008135E-01 a       567     0    23     1    17
 -1.5681561606282007E-01 a       568     0    23     1    18
 -3.1657133658030373E-01 a       569     0    23     1    19
 -1.0850068702668172E-01 a       570     0    23     1    20
  5.5277352742314795E-02 a       571     0    23     1    21
 -2.1718423928299460E-01 a       572     0    23     1    22
  1.0243913020265764E-01 a       573     0    23     1    23
 -1.3778661890744676E-01 a       574     0    23     1    24
 -1.9664376503997154E-02 a       575     0    23     1    25
 -3.2543947996238436E-02 a       576     0    24     1     1
  1.8078739200354109E-03 a       577     0    24     1     2
 -4.5302211326712263E-02 a       578     0    24     1     3
  8.1125485644412423E-02 a       579     0    24     1     4
 -4.3054781349054936E-03 a       580     0    24     1     5
  5.9190142292772439E-02 a       581     0    24     1     6
 -2.3078025078970160E-01 a       582     0    24     1     7
 -2.1741864317115705E-02 a       583     0    24     1     8
 -1.0916029875856546E-01 a       584     0    24     1     9
 -8.7878256356805420E-02 a       585     0    24     1    10
 -1.0777379245129801E-01 a       586     0    24     1    11
 -5.7169933334439878E-02 a       587     0    24     1    12
 -4.7366062388001895E-02 a       588     0    24     1    13
  2.9791043972988433E-02 a       589     0    24     1    14
  1.5171139147604279E-01 a       590     0    24     1    15
 -1.0225898846278175E-01 a       591     0    24     1    16
  2.6954429369597643E-01 a       592     0    24     1    17
  1.9256318304960646E-01 a       593     0    24     1    18
 -6.8543315983570233E-02 a       594     0    24     1    19
 -3.3132587631512245E-01 a       595     0    24     1    20
 -1.8614352061304965E-01 a       596     0    24     1    21
  1.2696651541008885E-01 a       597     0    24     1    22
  9.1717603291322961E-02 a       598     0    24     1    23
 -6.0645726420082952E-02 a       599     0    24     1    24
 -8.0433233103028648E-03 a       600     0    24     1    25
  2.1616359722612247E-01 a       601     0    25     1     1
 -2.9667936069300266E-01 a       602     0    25     1     2
  2.0364033439929236E-01 a       603     0    25     1     3
 -2.4983740200009497E-01 a       604     0    25     1     4
  1.2497354471864118E-02 a       605     0    25     1     5
  6.7805611323319026E-02 a       606     0    25     1     6
  6.1732201114048930E-02 a       607     0    25     1     7
 -1.4595505748395374E-01 a       608     0    25     1     8
  7.7643172062255711E-02 a       609     0    25     1     9
 -7.0050229698865776E-02 a       610     0    25     1    10
  4.1535905830875935E-02 a       611     0    25     1    11
  2.1209022168695196E-01 a       612     0    25     1    12
 -1.0336813441336618E-01 a       613     0    25     1    13
  3.0414520628201081E-03 a       614     0    25     1    14
  7.9050433031233810E-02 a       615     0    25     1    15
  2.0434223244323557E-01 a       616     0    25     1    16
  3.2909946378117554E-02 a       617     0    25     1    17
 -3.9441940941884185E-01 a       618     0    25     1    18
 -2.3921333242378415E-02 a       619     0    25     1    19
  2.0065660564330992E-01 a       620     0    25     1    20
 -2.2437854038415050E-01 a       621     0    25     1    21
  4.4340541018493010E-02 a       622     0    25     1    22
  1.1996354863830255E-01 a       623     0    25     1    23
 -1.4465034652797823E-01 a       624     0    25     1    24
  4.4067588546926849E-02 a       625     0    25     1    25
 -3.6241947165730271E-01 a       626     0    26     1     1
  3.5532281273628868E-01 a       627     0    26     1     2
  4.7925768737800974E-02 a       628     0    26     1     3
  2.0130735373950573E-01 a       629     0    26     1     4
 -7.1165899993840362E-02 a       630     0    26     1     5
 -1.8451404303581342E-01 a       631     0    26     1     6
  1.6757516161008199E-01 a       632     0    26     1     7
  7.7465160551233508E-02 a       633     0    26     1     8
  2.8329192882685628E-01 a       634     0    26     1     9
  5.1232564760308505E-02 a       635     0    26     1    10
  1.3447311519421185E-01 a       636     0    26     1    11
 -4.3153349081777440E-02 a       637     0    26     1    12
 -1.1562137498924026E-01 a       638     0    26     1    13
 -2.6595180496599180E-01 a       639     0    26     1    14
 -2.4589497929254051E-02 a       640     0    26     1    15
  5.4219081628037277E-02 a       641     0    26     1    16
 -5.0025032888729891E-03 a       642     0    26     1    17
  1.1228941959773882E-01 a       643     0    26     1    18
 -2.6808730684544896E-01 a       644     0    26     1    19
  1.9736773556986209E-01 a       645     0    26     1    20
  2.3086017038177600E-01 a       646     0    26     1    21
 -2.0947736418929729E-02 a       647     0    26     1    22
  1.4078048483145197E-01 a       648     0    26     1    23
  1.5482141954114539E-01 a       649     0    26     1    24
  4.3684978492619536E-01 a       650     0    26     1    25
 -7.8894825432021795E-02 a       651     0    27     1     1
 -1.5687079288814260E-01 a       652     0    27     1     2
 -1.1661207469973468E-01 a       653     0    27     1     3
 -2.7765844867897682E-01 a       654     0    27     1     4
  1.9577711398773565E-01 a       655     0    27     1     5
  5.1873768914355918E-02 a       656     0    27     1     6
  6.1730603110882777E-02 a       657     0    27     1     7
 -7.3968528885965362E-02 a       658     0    27     1     8
 -9.8727857274388015E-02 a       659     0    27     1     9
  5.5628431458856903E-02 a       660     0    27     1    10
 -1.3483676403913166E-03 a       661     0    27     1    11
  1.3186768924249936E-01 a       662     0    27     1    12
 -1.0698749146355128E-01 a       663     0    27     1    13
  3.3621540335163991E-01 a       664     0    27     1    14
  3.2452500217841039E-02 a       665     0    27     1    15
 -3.5686149346482471E-01 a       666     0    27     1    16
  2.7221187066821378E-01 a       667     0    27     1    17
 -2.3942285041939865E-01 a       668     0    27     1    18
  1.0094856485391447E-01 a       669     0    27     1    19
  1.8855016498085078E-01 a       670     0    27     1    20
  1.4705192226677258E-01 a       671     0    27     1    21
  1.0939755393131553E-01 a       672     0    27     1    22
 -9.1642625377173145E-02 a       673     0    27     1    23
  8.0683347791095150E-02 a       674     0    27     1    24
  6.4817629370235122E-02 a       675     0    27     1    25
  2.7227809330985783E-02 b       676     1     1
  1.4942861729146989E-01 b       677     1     2
 -1.5148832712830561E-02 b       678     1     3
  3.6055317837773319E-02 b       679     1     4
  1.8300039374844781E-01 b       680     1     5
  1.0743581386437347E-01 b       681     1     6
  1.2975444304928663E-02 b       682     1     7
 -4.4655656136590435E-02 b       683     1     8
  3.4917960390567458E-02 b       684     1     9
 -3.1269268251837051E-03 b       685     1    10
  1.8627500389254967E-02 b       686     1    11
  2.9842014426004770E-01 b       687     1    12
  4.0586007485479782E-02 b       688     1    13
  5.9870079669462201E-02 b       689     1    14
  7.8469820117487626E-02 b       690     1    15
  4.9051768601323383E-02 b       691     1    16
 -1.8953464557619617E-02 b       692     1    17
  5.9613717766438604E-02 b       693     1    18
  2.7765029908663915E-02 b       694     1    19
  5.3081410744817877E-02 b       695     1    20
  2.3133056446109322E-02 b       696     1    21
  1.4079257604750714E-01 b       697     1    22
 -1.3007076391938954E-01 b       698     1    23
 -5.8974722444506349E-02 b       699     1    24
 -8.6764883737638271E-02 b       700     1    25
  1.8220451344928289E-02 a       701     1     1     2     1
 -2.8091496131266852E-01 a       702     1     1     2     2
 -1.6395075940306109E-01 a       703     1     1     2     3
  1.0845212126600917E-01 a       704     1     1     2     4
 -5.8506846078220154E-01 a       705     1     1     2     5
  3.5944160788081786E-01 a       706     1     1     2     6
 -5.5869264696616093E-02 a       707     1     1     2     7
  3.9923891656845056E-01 a       708     1     1     2     8
 -1.5881130079738143E-01 a       709     1     1     2     9
 -2.1195376908575142E-01 a       710     1     1     2    10
 -1.9798719717526714E-01 a       711     1     1     2    11
  4.3846680510665502E-02 a       712     1     1     2    12
  2.4347338485929354E-01 a       713     1     1     2    13
  9.1414460548265006E-02 a       714     1     1     2    14
 -2.7314220327411820E-01 a       715     1     1     2    15
  1.8692620905650678E-01 a       716     1     1     2    16
  3.4795041944221755E-01 a       717     1     1     2    17
  3.4407102035864537E-03 a       718     1     1     2    18
 -2.5788081425346332E-01 a       719     1     1     2    19
  1.5657388108620782E-01 a       720     1     1     2    20
 -1.1012519938221153E-01 a       721     1     1     2    21
  8.0274165952625418E-02 a       722     1     1     2    22
 -3.4093592853575584E-02 a       723     1     1     2    23
  1.2371527659931528E-01 a       724     1     1     2    24
 -5.3625306349527158E-01 a       725     1     1     2    25
 -3.5886058365154766E-01 a       726     1     2     2     1
  7.1625030619977437E-02 a       727     1     2     2     2
  3.5136737888713293E-01 a       728     1     2     2     3
  1.4359531105564083E-01 a       729     1     2     2     4
 -2.2769918370448738E-01 a       730     1     2     2     5
  7.9690043592777357E-02 a       731     1     2     2     6
 -2.2640990997898217E-01 a       732     1     2     2     7
  2.1315414469689858E-01 a       733     1     2     2     8
 -1.0156332654914399E-01 a       734     1     2     2     9
 -2.1566611439558872E-01 a       735     1     2     2    10
 -2.6951661076792061E-01 a       736     1     2     2    11
  3.3554109797453396E-01 a       737     1     2     2    12
  3.2803932703677756E-02 a       738     1     2     2    13
  1.9519782726614779E-01 a       739     1     2     2    14
 -2.8417225160790283E-01 a       740     1     2     2    15
  2.8242720911873981E-01 a       741     1     2     2    16
 -1.7773168173316009E-01 a       742     1     2     2    17
 -8.0120966832874271E-02 a       743     1     2     2    18
  6.4308364828152900E-02 a       744     1     2     2    19
 -4.1156867482421498E-02 a       745     1     2     2    20
 -1.8248757895004283E-01 a       746     1     2     2    21
 -6.7948988498217469E-02 a       747     1     2     2    22
  1.1983449744950629E-01 a       748     1     2     2    23
 -9.0192761263194879E-02 a       749     1     2     2    24
 -1.1574796594316011E-01 a       750     1     2     2    25
  2.4244321460562310E-01 a       751     1     3     2     1
 -1.8229605975354538E-01 a       752     1     3     2     2
 -1.6975862463561187E-02 a       753     1     3     2     3
  1.3914206894699852E-01 a       754     1     3     2     4
 -2.7262412842393080E-01 a       755     1     3     2     5
 -2.3007786885406356E-01 a       756     1     3     2     6
 -2.1279033142919415E-01 a       757     1     3     2     7
 -1.0287893547093195E-01 a       758     1     3     2     8
 -4.1578266430307992E-01 a       759     1     3     2     9
  2.1800441271442761E-01 a       760     1     3     2    10
 -7.4980367387451315E-03 a       761     1     3     2    11
 -2.4526591504953391E-01 a       762     1     3     2    12
 -5.3888844608911102E-01 a       763     1     3     2    13
 -5.0074898867966011E-01 a       764     1     3     2    14
 -9.8650530457423766E-02 a       765     1     3     2    15
  7.3507465403709310E-02 a       766     1     3     2    16
  6.0102718174953301E-02 a       767     1     3     2    17
  3.0258060372553081E-01 a       768     1     3     2    18
 -4.1946416718649870E-01 a       769     1     3     2    19
 -1.8138762009469639E-01 a       770     1     3     2    20
  1.8525921704139534E-01 a       771     1     3     2    21
  8.1977570439064687E-02 a       772     1     3     2    22
 -1.3126021092445631E-01 a       773     1     3     2    23
  3.6206912488040210E-01 a       774     1     3     2    24
 -2.5168433931137608E-02 a       775     1     3     2    25
 -3.4956763479186598E-01 a       776     1     4     2     1
 -3.1089353932248537E-01 a       777     1     4     2     2
 -3.0334395268725001E-01 a       778     1     4     2     3
  1.6098991535111640E-01 a       779     1     4     2     4
  9.4497021279474125E-02 a       780     1     4     2     5
  3.0387440471422428E-01 a       781     1     4     2     6
 -2.8608433268718942E-02 a       782     1     4     2     7
  2.8808358088471386E-01 a       783     1     4     2     8
  1.6394846126382309E-01 a       784     1     4     2     9
 -8.5060030811564283E-02 a       785     1     4     2    10
 -7.2838578319176020E-02 a       786     1     4     2    11
  2.7602164839446684E-02 a       787     1     4     2    12
  1.9156018516382267E-01 a       788     1     4     2    13
  3.3422644701932219E-01 a       789     1     4     2    14
 -2.4467170726727711E-01 a       790     1     4     2    15
 -5.8976744577318899E-02 a       791     1     4     2    16
  1.2128073283393649E-01 a       792     1     4     2    17
 -4.0848843339711255E-02 a       793     1     4     2    18
  8.5497707146072702E-02 a       794     1     4     2    19
  1.0551005672709154E-01 a       795     1     4     2    20
 -4.3672034294330503E-02 a       796     1     4     2    21
 -3.3998751259367001E-02 a       797     1     4     2    22
 -1.9247578524045489E-01 a       798     1     4     2    23
  2.7004316527855909E-01 a       799     1     4     2    24
 -4.6095026174233800E-01 a       800     1     4     2    25
  1.8581372189481965E-01 a       801     1     5     2     1
 -1.9082486391221018E-01 a       802     1     5     2     2
  2.2597236416454367E-01 a       803     1     5     2     3
  3.0243610615963024E-01 a       804     1     5     2     4
 -1.4606734299336954E-01 a       805     1     5     2     5
  4.3404101251886823E-01 a       806     1     5     2     6
  1.6056965434017975E-01 a       807     1     5     2     7
  2.9621988002984223E-01 a       808     1     5     2     8
  3.8366395124279778E-01 a       809     1     5     2     9
  3.9513571305830414E-01 a       810     1     5     2    10
  3.5167393848848133E-01 a       811     1     5     2    11
  2.1936326797492581E-01 a       812     1     5     2    12
  2.1617604586041231E-01 a       813     1     5     2    13
  1.4439767994932162E-02 a       814     1     5     2    14
  1.2563168519236603E-01 a       815     1     5     2    15
  1.6486870654626051E-01 a       816     1     5     2    16
 -4.1361088278677127E-02 a       817     1     5     2    17
  2.7391437115425565E-01 a       818     1     5     2    18
 -1.4981438640632967E-02 a       819     1     5     2    19
 -3.5618477018939504E-01 a       820     1     5     2    20
 -1.2429560264183964E-01 a       821     1     5     2    21
  3.4620284947435881E-01 a       822     1     5     2    22
  1.7515670711391609E-01 a       823     1     5     2    23
  1.3450336776937882E-01 a       824     1     5     2    24
 -1.2331153393303008E-01 a       825     1     5     2    25
 -3.2915358300478309E-01 a       826     1     6     2     1
 -1.3411115748550220E-01 a       827     1     6     2     2
 -9.9452087300573339E-02 a       828     1     6     2     3
  9.6085903415887797E-02 a       829     1     6     2     4
  2.1462805526576811E-01 a       830     1     6     2     5
 -1.2980128709645122E-01 a       831     1     6     2     6
  1.8500483876208340E-01 a       832     1     6     2     7
  2.0792058695729182E-01 a       833     1     6     2     8
 -2.8448242696394760E-02 a       834     1     6     2     9
  4.3256246972182671E-01 a       835     1     6     2    10
 -1.4937197385701118E-01 a       836     1     6     2    11
 -9.7325118629570141E-03 a       837     1     6     2    12
 -8.0371780157864527E-03 a       838     1     6     2    13
 -2.0665180947747999E-01 a       839     1     6     2    14
  1.7583278558040899E-01 a       840     1     6     2    15
 -1.2769992921907126E-02 a       841     1     6     2    16
 -8.8255198851585767E-02 a       842     1     6     2    17
  4.3995811821054542E-01 a       843     1     6     2    18
 -1.1745230460963257E-01 a       844     1     6     2    19
 -3.9075465352407177E-02 a       845     1     6     2    20
 -4.1536346221561077E-02 a       846     1     6     2    21
  2.0406912253022602E-01 a       847     1     6     2    22
 -1.1888730905730008E-02 a       848     1     6     2    23
  2.1248642009632038E-01 a       849     1     6     2    24
 -4.0698657410024752E-01 a       850     1     6     2    25
  4.5192326198417487E-01 a       851     1     7     2     1
 -3.3353898692053369E-01 a       852     1     7     2     2
  2.2577287801112725E-01 a       853     1     7     2     3
  1.6064035246025840E-01 a       854     1     7     2     4
  1.2415244851001951E-01 a       855     1     7     2     5
 -1.9684922588891932E-01 a       856     1     7     2     6
  8.8107731483449470E-02 a       857     1     7     2     7
 -2.9696546650926103E-01 a       858     1     7     2     8
  1.3315568897153809E-01 a       859     1     7     2     9
  3.5702073775974486E-01 a       860     1     7     2    10
 -1.6593415187790153E-01 a       861     1     7     2    11
 -2.0725163504087376E-03 a       862     1     7     2    12
  7.8305176311447844E-02 a       863     1     7     2    13
 -1.7902238213654059E-01 a       864     1     7     2    14
 -3.7118953724125647E-01 a       865     1     7     2    15
  4.5979147981222346E-01 a       866     1     7     2    16
 -1.0423870254734681E-01 a       867     1     7     2    17
  1.6002363289953481E-01 a       868     1     7     2    18
  3.0391104037563416E-02 a       869     1     7     2    19
  3.9168026785743515E-01 a       870     1     7     2    20
 -4.6809510481010197E-01 a       871     1     7     2    21
 -3.8076627381439576E-01 a       872     1     7     2    22
  9.6754945264836842E-02 a       873     1     7     2    23
 -2.6891516065483073E-01 a       874     1     7     2    24
 -4.4208982227676823E-02 a       875     1     7     2    25
 -8.5953566752451457E-02 a       876     1     8     2     1
  8.4206912656775559E-02 a       877     1     8     2     2
 -1.3029886796081316E-01 a       878     1     8     2     3
 -4.9558034015621583E-01 a       879     1     8     2     4
 -1.8497278795196773E-01 a       880     1     8     2     5
 -3.3808011655459519E-01 a       881     1     8     2     6
  2.3664264812533969E-01 a       882     1     8     2     7
  4.6509230461170913E-02 a       883     1     8     2     8
 -2.5783599253494976E-02 a       884     1     8     2     9
 -1.3969102400581720E-01 a       885     1     8     2    10
  2.5484960520168182E-01 a       886     1     8     2    11
 -1.5398104191292372E-01 a       887     1     8     2    12
  8.8875860440242403E-03 a       888     1     8     2    13
  1.8557550367170761E-01 a       889     1     8     2    14
  1.5208077632749634E-01 a       890     1     8     2    15
  3.9484504391347465E-02 a       891     1     8     2    16
 -1.2077464311410185E-01 a       892     1     8     2    17
 -2.8828672380999104E-01 a       893     1     8     2    18
 -3.4034811925488635E-02 a       894     1     8     2    19
  4.5208833184261249E-01 a       895     1     8     2    20
 -3.2618636603974949E-01 a       896     1     8     2    21
 -3.6146100668975545E-01 a       897     1     8     2    22
  1.6813684630732356E-01 a       898     1     8     2    23
  8.7053357553743049E-02 a       899     1     8     2    24
  1.6350026422416514E-01 a       900     1     8     2    25
  1.4705982642781726E-01 a       901     1     9     2     1
  3.1664843823066441E-01 a       902     1     9     2     2
 -1.5033134217832295E-01 a       903     1     9     2     3
  2.8718077978905555E-02 a       904     1     9     2     4
 -4.2715445348301240E-01 a       905     1     9     2     5
  2.5596188293126043E-01 a       906     1     9     2     6
 -2.8420872883851217E-01 a       907     1     9     2     7
  2.0258531881003342E-01 a       908     1     9     2     8
 -8.0096870723871269E-02 a       909     1     9     2     9
 -3.3533295339863639E-01 a       910     1     9     2    10
 -1.6216652274718768E-01 a       911     1     9     2    11
 -5.7559399671981183E-02 a       912     1     9     2    12
 -1.1026840121873616E-01 a       913     1     9     2    13
 -2.9156316434891794E-01 a       914     1     9     2    14
 -3.4113360379175328E-01 a       915     1     9     2    15
  4.5037406291176324E-01 a       916     1     9     2    16
 -4.1497907585862408E-02 a       917     1     9     2    17
  1.4831410815264373E-01 a       918     1     9     2    18
 -3.4334598073851341E-01 a       919     1     9     2    19
  8.2095518865105549E-02 a       920     1     9     2    20
  1.9273027574190202E-01 a       921     1     9     2    21
 -7.2413234817952595E-04 a       922     1     9     2    22
 -2.6175349692079536E-01 a       923     1     9     2    23
  1.3072257960047592E-01 a       924     1     9     2    24
  1.1785793945422784E-01 a       925     1     9     2    25
  1.2835078388874138E-01 a       926     1    10     2     1
 -8.1849014205526984E-04 a       927     1    10     2     2
 -1.7915934319491256E-01 a       928     1    10     2     3
 -2.4490601879255688E-01 a       929     1    10     2     4
 -8.8039757786141051E-02 a       930     1    10     2     5
  2.4646311169252325E-01 a       931     1    10     2     6
  2.4242921657570174E-01 a       932     1    10     2     7
  7.5500308476281114E-02 a       933     1    10     2     8
  1.0734937653599287E-01 a       934     1    10     2     9
 -1.7834060348603500E-01 a       935     1    10     2    10
  4.5922698615474294E-01 a       936     1    10     2    11
  9.4398891689533207E-02 a       937     1    10     2    12
  1.8920666359504928E-01 a       938     1    10     2    13
  1.4430115211292791E-01 a       939     1    10     2    14
 -2.8137073246579597E-01 a       940     1    10     2    15
  1.0779681388047415E-02 a       941     1    10     2    16
  6.7123058160985516E-02 a       942     1    10     2    17
 -1.0680893830179580E-01 a       943     1    10     2    18
 -6.2740299605112765E-02 a       944     1    10     2    19
 -2.7649561154671282E-01 a       945     1    10     2    20
  2.0677964704830704E-01 a       946     1    10     2    21
 -6.9585101236810817E-02 a       947     1    10     2    22
 -1.9167725378247080E-01 a       948     1    10     2    23
  5.4556425662794894E-01 a       949     1    10     2    24
 -9.1684595362153995E-02 a       950     1    10     2    25
  3.8743828760441530E-03 a       951     1    11     2     1
 -2.1589987320094961E-01 a       952     1    11     2     2
 -3.4128217050797785E-02 a       953     1    11     2     3
 -3.1243734896815317E-01 a       954     1    11     2     4
 -2.1744238994788939E-01 a       955     1    11     2     5
 -3.4605630757174760E-01 a       956     1    11     2     6
  1.5790843462607071E-01 a       957     1    11     2     7
 -1.3722686321102540E-01 a       958     1    11     2     8
 -2.8995728407740773E-01 a       959     1    11     2     9
  1.8932537809408273E-01 a       960     1    11     2    10
 -2.2695740397927297E-01 a       961     1    11     2    11
 -2.5490718571663882E-02 a       962     1    11     2    12
 -2.0475283501415048E-01 a       963     1    11     2    13
  7.9296706289542815E-02 a       964     1    11     2    14
  1.0223665882650163E-01 a       965     1    11     2    15
 -7.7776164944510368E-02 a       966     1    11     2    16
  2.6067182299684183E-01 a       967     1    11     2    17
 -2.5433619615729319E-01 a       968     1    11     2    18
  1.0792512146086215E-01 a       969     1    11     2    19
  1.2902332180676393E-02 a       970     1    11     2    20
 -1.8986643938954526E-01 a       971     1    11     2    21
 -3.1488040381602583E-01 a       972     1    11     2    22
  2.9327524430372282E-01 a       973     1    11     2    23
  1.7828070341219140E-01 a       974     1    11     2    24
  1.9153885779167759E-01 a       975     1    11     2    25
 -1.4545573975808332E-01 a       976     1    12     2     1
 -6.1690330846245434E-01 a       977     1    12     2     2
  2.1107491747118120E-02 a       978     1    12     2     3
 -1.8875438545282511E-01 a       979     1    12     2     4
 -5.9507334041781546E-02 a       980     1    12     2     5
  2.1413865922973271E-01 a       981     1    12     2     6
  8.3837589792424713E-02 a       982     1    12     2     7
  2.9169584876230992E-01 a       983     1    12     2     8
 -1.0042606549253902E-01 a       984     1    12     2     9
  9.7766951739383559E-02 a       985     1    12     2    10
 -8.0610301386915995E-02 a       986     1    12     2    11
 -2.6953920829682820E-01 a       987     1    12     2    12
  1.6636660166208134E-01 a       988     1    12     2    13
 -3.0578386470157115E-01 a       989     1    12     2    14
 -8.9360883966940960E-02 a       990     1    12     2    15
  1.7928164126273818E-01 a       991     1    12     2    16
  4.5763021422587213E-01 a       992     1    12     2    17
 -1.4426051843734086E-01 a       993     1    12     2    18
 -1.5988693891880040E-01 a       994     1    12     2    19
  2.0381080878488830E-01 a       995     1    12     2    20
  1.1497427907357305E-01 a       996     1    12     2    21
  2.2010829731370243E-01 a       997     1    12     2    22
 -1.6415003212071169E-01 a       998     1    12     2    23
 -4.2950919049174535E-01 a       999     1    12     2    24
 -8.2210445980584426E-02 a      1000     1    12     2    25
  4.0342820455062627E-05 a      1001     1    13     2     1
  3.2360088607327031E-01 a      1002     1    13     2     2
  6.0105263723992863E-03 a      1003     1    13     2     3
 -1.4888818344458213E-01 a      1004     1    13     2     4
 -2.3982126515585436E-01 a      1005     1    13     2     5
  2.2142413173145623E-01 a      1006     1    13     2     6
 -8.7801028115157623E-02 a      1007     1    13     2     7
  3.2925299110361544E-01 a      1008     1    13     2     8
  4.1756398065304942E-02 a      1009     1    13     2     9
 -2.3591577796747557E-01 a      1010     1    13     2    10
 -5.8650844032061403E-02 a      1011     1    13     2    11
  1.1634841950993800E-01 a      1012     1    13     2    12
  3.3945187343095679E-01 a      1013     1    13     2    13
 -1.6167972949508488E-02 a      1014     1    13     2    14
 -1.0065834188734013E-01 a      1015     1    13     2    15
 -1.4450258303537156E-02 a      1016     1    13     2    16
 -3.3213088691855858E-01 a      1017     1    13     2    17
  2.4311088205182327E-01 a      1018     1    13     2    18
 -3.5673109951232529E-01 a      1019     1    13     2    19
  1.3432861588155262E-01 a      1020     1    13     2    20
 -2.9524350000223271E-01 a      1021     1    13     2    21
  1.5356650883986172E-02 a      1022     1    13     2    22
 -4.9074337085379022E-01 a      1023     1    13     2    23
 -1.5712787340105569E-01 a      1024     1    13     2    24
 -2.1314279036584768E-01 a      1025     1    13     2    25
 -1.6954786914906528E-01 a      1026     1    14     2     1
 -2.0604668350749669E-01 a      1027     1    14     2     2
 -2.5739435542161421E-01 a      1028     1    14     2     3
  1.2172155923438456E-01 a      1029     1    14     2     4
 -1.9184670938223417E-01 a      1030     1    14     2     5
  3.2690572985572447E-01 a      1031     1    14     2     6
  2.9669897487854002E-01 a      1032     1    14     2     7
  2.0911308229159267E-01 a      1033     1    14     2     8
 -6.0921295312970615E-02 a      1034     1    14     2     9
 -1.8960176333719927E-01 a      1035     1    14     2    10
 -1.1242636739104184E-01 a      1036     1    14     2    11
 -1.9618778961104741E-01 a      1037     1    14     2    12
 -6.6537735022615271E-02 a      1038     1    14     2    13
 -1.9493743623842261E-01 a      1039     1    14     2    14
 -1.0443728421065676E-01 a      1040     1    14     2    15
  8.8590960133001884E-02 a      1041     1    14     2    16
  1.7978799143486240E-01 a      1042     1    14     2    17
 -1.5529286285892879E-01 a      1043     1    14     2    18
  3.7521420949501094E-01 a      1044     1    14     2    19
  3.5635666350970135E-01 a      1045     1    14     2    20
 -1.5590157331980575E-01 a      1046     1    14     2    21
  2.8447730019053608E-01 a      1047     1    14     2    22
 -1.4381321064891855E-01 a      1048     1    14     2    23
 -2.7836602940096788E-01 a      1049     1    14     2    24
  1.5003895574003659E-01 a      1050     1    14     2    25
  2.1883306062549243E-01 a      1051     1    15     2     1
  1.6826344880187397E-01 a      1052     1    15     2     2
  4.8536158825105438E-02 a      1053     1    15     2     3
 -9.1471399512569163E-02 a      1054     1    15     2     4
 -1.5549951690119104E-02 a      1055     1    15     2     5
 -6.9427681094291468E-02 a      1056     1    15     2     6
  2.6955109653301351E-01 a      1057     1    15     2     7
 -6.1515730954236320E-02 a      1058     1    15     2     8
 -1.0219586774136745E-02 a      1059     1    15     2     9
  5.5085047167374411E-02 a      1060     1    15     2    10
  5.0393831501160080E-01 a      1061     1    15     2    11
  2.6212353073928657E-01 a      1062     1    15     2    12
 -1.4953375575200822E-01 a      1063     1    15     2    13
  1.5133921684171481E-02 a      1064     1    15     2    14
 -1.6537621439523156E-01 a      1065     1    15     2    15
  1.9140607656877576E-01 a      1066     1    15     2    16
 -4.3445908824871005E-01 a      1067     1    15     2    17
 -2.0392456480151405E-02 a      1068     1    15     2    18
  4.7487339226997016E-01 a      1069     1    15     2    19
 -3.8730181671791736E-01 a      1070     1    15     2    20
  1.4863126993072165E-01 a      1071     1    15     2    21
  2.6661473536998010E-02 a      1072     1    15     2    22
  1.7515948369300141E-01 a      1073     1    15     2    23
 -1.4858361592233795E-02 a      1074     1    15     2    24
  2.3705537953115280E-01 a      1075     1    15     2    25
 -3.0319432145110481E-01 a      1076     1    16     2     1
  2.5297627307501730E-01 a      1077     1    16     2     2
 -3.2164702233589337E-01 a      1078     1    16     2     3
  2.8559224813393147E-01 a      1079     1    16     2     4
  4.0857331639066996E-01 a      1080     1    16     2     5
  9.0052034496693550E-02 a      1081     1    16     2     6
 -2.0026101505467439E-01 a      1082     1    16     2     7
  2.3499887204228934E-01 a      1083     1    16     2     8
  1.9234942257098203E-01 a      1084     1    16     2     9
  1.0116527804922484E-01 a      1085     1    16     2    10
  5.2216606638265703E-02 a      1086     1    16     2    11
  4.1321279725496685E-01 a      1087     1    16     2    12
  4.1026315128488994E-01 a      1088     1    16     2    13
  1.5353262635557852E-01 a      1089     1    16     2    14
 -1.3068368594480267E-01 a      1090     1    16     2    15
  5.5578961849452782E-02 a      1091     1    16     2    16
 -1.5121667787939672E-01 a      1092     1    16     2    17
  2.0466565464491729E-01 a      1093     1    16     2    18
  1.9103290600254542E-02 a      1094     1    16     2    19
 -4.7387635732976288E-02 a      1095     1    16     2    20
 -2.6795391914736333E-01 a      1096     1    16     2    21
  7.1744883368898490E-02 a      1097     1    16     2    22
  8.2127220225504394E-02 a      1098     1    16     2    23
  4.5907770879413384E-01 a      1099     1    16     2    24
 -5.7114409712845766E-02 a      1100     1    16     2    25
 -2.3776195370880102E-01 a      1101     1    17     2     1
 -1.3538189061678077E-02 a      1102     1    17     2     2
  2.3892867100999554E-01 a      1103     1    17     2     3
  3.5833949574518725E-01 a      1104     1    17     2     4
  5.8746023806661621E-02 a      1105     1    17     2     5
  6.4426130350738377E-03 a      1106     1    17     2     6
 -1.6235567991154157E-01 a      1107     1    17     2     7
  3.3784194852726677E-02 a      1108     1    17     2     8
  3.2328189561367113E-02 a      1109     1    17     2     9
  4.9784490678695059E-01 a      1110     1    17     2    10
  1.4726974466437823E-01 a      1111     1    17     2    11
 -1.1335151696078857E-01 a      1112     1    17     2    12
 -2.9929147331751026E-02 a      1113     1    17     2    13
 -3.5271675922906276E-01 a      1114     1    17     2    14
  1.3351951871927489E-01 a      1115     1    17     2    15
 -2.1316782237018897E-01 a      1116     1    17     2    16
  6.3891294130078158E-02 a      1117     1    17     2    17
  1.4652322949538288E-01 a      1118     1    17     2    18
 -1.9178316708665041E-02 a      1119     1    17     2    19
 -4.5678770008474412E-01 a      1120     1    17     2    20
  6.5630960597690802E-02 a      1121     1    17     2    21
  1.8189905381793384E-01 a      1122     1    17     2    22
 -7.3458893056624758E-02 a      1123     1    17     2    23
 -6.9976126791596163E-02 a      1124     1    17     2    24
 -8.3150606888925144E-02 a      1125     1    17     2    25
  2.0889407299696722E-01 a      1126     1    18     2     1
  1.7454624341532982E-01 a      1127     1    18     2     2
  2.2433310438115248E-01 a      1128     1    18     2     3
 -4.8116139295405647E-01 a      1129     1    18     2     4
  1.0707133026225253E-01 a      1130     1    18     2     5
 -6.1400953578435802E-01 a      1131     1    18     2     6
 -3.4061983940967301E-02 a      1132     1    18     2     7
 -1.5921252652115817E-01 a      1133     1    18     2     8
 -3.9640939010019183E-01 a      1134     1    18     2     9
  1.1920851035542240E-01 a      1135     1    18     2    10
  1.4746101804740644E-01 a      1136     1    18     2    11
  2.8911230634556728E-01 a      1137     1    18     2    12
 -1.8501006255078969E-01 a      1138     1    18     2    13
 -1.5954070466685077E-01 a      1139     1    18     2    14
 -2.1742234455796254E-02 a      1140     1    18     2    15
  1.8459119845029365E-02 a      1141     1    18     2    16
  1.7129747796283876E-01 a      1142     1    18     2    17
  3.9817910655130559E-02 a      1143     1    18     2    18
  1.0875279612122818E-01 a      1144     1    18     2    19
  7.8698910459236479E-02 a      1145     1    18     2    20
  1.5914777255639473E-02 a      1146     1    18     2    21
 -1.7807446269807986E-01 a      1147     1    18     2    22
  1.6618369502319551E-02 a      1148     1    18     2    23
 -1.5268697424465547E-02 a      1149     1    18     2    24
 -3.1981550953173191E-02 a      1150     1    18     2    25
 -3.5853862707479456E-01 a      1151     1    19     2     1
  1.8097568490438481E-01 a      1152     1    19     2     2
  3.0564346416040916E-01 a      1153     1    19     2     3
 -1.0143359069805702E-01 a      1154     1    19     2     4
  9.3742742141068133E-02 a      1155     1    19     2     5
  8.2405457617039046E-02 a      1156     1    19     2     6
  2.1636315577386600E-01 a      1157     1    19     2     7
 -6.4138329139945244E-02 a      1158     1    19     2     8
  6.8683419620966607E-02 a      1159     1    19     2     9
  1.6640902208375577E-01 a      1160     1    19     2    10
 -3.3038205654687414E-01 a      1161     1    19     2    11
  1.4932799583699435E-01 a      1162     1    19     2    12
 -3.6441699410141160E-01 a      1163     1    19     2    13
 -7.5553784393206105E-02 a      1164     1    19     2    14
 -2.2600733722655711E-02 a      1165     1    19     2    15
  3.1806187761717647E-01 a      1166     1    19     2    16
 -1.7002714369078392E-01 a      1167     1    19     2    17
  3.2381735434044844E-02 a      1168     1    19     2    18
 -3.5581676985806117E-02 a      1169     1    19     2    19
 -3.3624087890865795E-02 a      1170     1    19     2    20
 -2.6800741157722813E-01 a      1171     1    19     2    21
  2.1394121801740784E-01 a      1172     1    19     2    22
  3.1249585920771383E-01 a      1173     1    19     2    23
 -2.6871921257515213E-01 a      1174     1    19     2    24
 -9.2883924442216326E-02 a      1175     1    19     2    25
  1.1346950210929457E-01 a      1176     1    20     2     1
 -6.6525659890634900E-02 a      1177     1    20     2     2
 -1.2627466446849075E-01 a      1178     1    20     2     3
  9.0462280171615825E-02 a      1179     1    20     2     4
  2.9682699784021588E-01 a      1180     1    20     2     5
 -2.8772783612505942E-01 a      1181     1    20     2     6
  9.2439391394045639E-02 a      1182     1    20     2     7
  1.3688014417572111E-01 a      1183     1    20     2     8
 -1.3186422522574834E-01 a      1184     1    20     2     9
  3.1598519822684634E-01 a      1185     1    20     2    10
  1.7176069098775726E-01 a      1186     1    20     2    11
  2.3418846012490546E-01 a      1187     1    20     2    12
  3.0439495110438064E-01 a      1188     1    20     2    13
  2.3231635431072259E-01 a      1189     1    20     2    14
 -1.6248891180577396E-01 a      1190     1    20     2    15
 -5.7619554516483068E-02 a      1191     1    20     2    16
  2.9917379613172446E-01 a      1192     1    20     2    17
 -2.4611182225974143E-01 a      1193     1    20     2    18
 -6.1648471135720126E-02 a      1194     1    20     2    19
 -8.5048898474649359E-02 a      1195     1    20     2    20
 -2.3035984584850322E-01 a      1196     1    20     2    21
  2.4435544328571368E-01 a      1197     1    20     2    22
 -1.0050688072816738E-01 a      1198     1    20     2    23
 -2.7074687978611023E-01 a      1199     1    20     2    24
  8.9518832072739210E-02 a      1200     1    20     2    25
 -1.3609348780296279E-01 a      1201     1    21     2     1
  2.8172759868338620E-01 a      1202     1    21     2     2
  4.8417274937482567E-02 a      1203     1    21     2     3
  1.8700960141289000E-01 a      1204     1    21     2     4
 -5.4974468261957332E-01 a      1205     1    21     2     5
  4.1416470810613454E-01 a      1206     1    21     2     6
  8.0434378497145603E-02 a      1207     1    21     2     7
  1.8902226051514831E-01 a      1208     1    21     2     8
  2.7885327855796932E-01 a      1209     1    21     2     9
 -2.5433181802225896E-01 a      1210     1    21     2    10
  2.3677436747945296E-01 a      1211     1    21     2    11
 -4.1032216871002739E-02 a      1212     1    21     2    12
  7.6664317813810501E-02 a      1213     1    21     2    13
 -3.5032450449636449E-01 a      1214     1    21     2    14
  3.7848261126290215E-02 a      1215     1    21     2    15
 -1.9997675805291801E-01 a      1216     1    21     2    16
 -1.1586386341498464E-01 a      1217     1    21     2    17
  2.5093714302199177E-01 a      1218     1    21     2    18
  3.3785537878619348E-01 a      1219     1    21     2    19
  2.4271426808316665E-01 a      1220     1    21     2    20
 -9.0116424516831629E-04 a      1221     1    21     2    21
 -2.9633405829212950E-01 a      1222     1    21     2    22
 -2.4012622342735948E-02 a      1223     1    21     2    23
 -1.5868894035560191E-01 a      1224     1    21     2    24
 -2.9381797088836414E-01 a      1225     1    21     2    25
  2.4106227484165335E-01 a      1226     1    22     2     1
  4.7797446844035268E-01 a      1227     1    22     2     2
  2.2406902181207303E-01 a      1228     1    22     2     3
  3.0664294107206025E-01 a      1229     1    22     2     4
 -1.0125735849723090E-01 a      1230     1    22     2     5
  1.9228441273377592E-01 a      1231     1    22     2     6
 -7.7725194248362731E-02 a      1232     1    22     2     7
 -3.0163441687248660E-01 a      1233     1    22     2     8
  3.0135321644855317E-01 a      1234     1    22     2     9
 -1.6289493171091896E-01 a      1235     1    22     2    10
 -1.9519266005703992E-01 a      1236     1    22     2    11
 -1.4083196376217485E-02 a      1237     1    22     2    12
 -1.5055399017041803E-02 a      1238     1    22     2    13
  1.0791285454988296E-01 a      1239     1    22     2    14
  3.4674605610090348E-01 a      1240     1    22     2    15
  2.4981042127976172E-01 a      1241     1    22     2    16
  2.7741923776596317E-01 a      1242     1    22     2    17
 -7.4156440292839673E-02 a      1243     1    22     2    18
 -3.1161747212847624E-01 a      1244     1    22     2    19
 -2.3740039638063762E-01 a      1245     1    22     2    20
 -1.2685837638182737E-01 a      1246     1    22     2    21
 -3.3184343106602532E-01 a      1247     1    22     2    22
  2.9213197997517608E-03 a      1248     1    22     2    23
 -1.9295940284734558E-01 a      1249     1    22     2    24
 -7.7925629276030084E-02 a      1250     1    22     2    25
 -3.7340348907193804E-01 a      1251     1    23     2     1
 -8.1178292087697321E-02 a      1252     1    23     2     2
 -2.5749859413662274E-01 a      1253     1    23     2     3
  4.1550388310204062E-01 a      1254     1    23     2     4
 -3.8462451750672333E-01 a      1255     1    23     2     5
  4.0193272361811172E-01 a      1256     1    23     2     6
  1.7939203982869514E-01 a      1257     1    23     2     7
  3.3507915280005723E-01 a      1258     1    23     2     8
  1.2838399915773582E-01 a      1259     1    23     2     9
  4.7922893184542112E-02 a      1260     1    23     2    10
 -2.4668518975872350E-01 a      1261     1    23     2    11
 -1.3152212104241079E-01 a      1262     1    23     2    12
  7.3015814494148415E-02 a      1263     1    23     2    13
 -2.9017329908291262E-01 a      1264     1    23     2    14
 -2.0398351473633961E-01 a      1265     1    23     2    15
  2.7853867791471509E-01 a      1266     1    23     2    16
  1.2791833925258658E-01 a      1267     1    23     2    17
  2.3960777142117548E-01 a      1268     1    23     2    18
  1.0240258741512251E-02 a      1269     1    23     2    19
 -1.9450333145125506E-01 a      1270     1    23     2    20
  2.3339927016729795E-01 a      1271     1    23     2    21
  1.7389385852068856E-01 a      1272     1    23     2    22
 -1.6323103382490151E-01 a      1273     1    23     2    23
  2.8306531206237584E-01 a      1274     1    23     2    24
 -7.7592195783209542E-02 a      1275     1    23     2    25
  1.7896863132860480E-01 a      1276     1    24     2     1
 -1.5603266451522657E-01 a      1277     1    24     2     2
 -3.5114932876903515E-01 a      1278     1    24     2     3
  2.9602771808377681E-01 a      1279     1    24     2     4
 -1.6434181904043127E-01 a      1280     1    24     2     5
  2.7066258381721428E-02 a      1281     1    24     2     6
  2.4787025577747485E-01 a      1282     1    24     2     7
  1.0913786388157665E-01 a      1283     1    24     2     8
  1.1399275807832958E-01 a      1284     1    24     2     9
  2.0337555402626159E-01 a      1285     1    24     2    10
 -1.6735082350961020E-01 a      1286     1    24     2    11
 -1.6566690905749185E-01 a      1287     1    24     2    12
  2.8706273773265858E-02 a      1288     1    24     2    13
 -4.8151200833327898E-02 a      1289     1    24     2    14
  1.9540824587486158E-01 a      1290     1    24     2    15
 -2.1412079975758017E-02 a      1291     1    24     2    16
  1.7053302980042648E-01 a      1292     1    24     2    17
  7.2206433565456626E-02 a      1293     1    24     2    18
  3.0935282276738912E-01 a      1294     1    24     2    19
  2.9583122593933942E-01 a      1295     1    24     2    20
 -1.8938842596364103E-01 a      1296     1    24     2    21
  3.9282094148936636E-01 a      1297     1    24     2    22
  2.9978565052710249E-01 a      1298     1    24     2    23
 -3.6747395975583741E-01 a      1299     1    24     2    24
 -3.4910650622218614E-01 a      1300     1    24     2    25
  1.4934124910263502E-01 a      1301     1    25     2     1
 -2.2188712500571028E-01 a      1302     1    25     2     2
  1.0269506211118713E-01 a      1303     1    25     2     3
 -4.0854619457633723E-01 a      1304     1    25     2     4
  1.9358430430469595E-01 a      1305     1    25     2     5
 -1.7159990363547600E-01 a      1306     1    25     2     6
  2.5533487999499060E-01 a      1307     1    25     2     7
 -5.1450042313402000E-01 a      1308     1    25     2     8
  2.5351840574008633E-02 a      1309     1    25     2     9
  1.7705069498341347E-01 a      1310     1    25     2    10
 -1.9127811376949713E-01 a      1311     1    25     2    11
  1.1763245469380780E-01 a      1312     1    25     2    12
 -4.4213385164127574E-02 a      1313     1    25     2    13
  3.4571195704804714E-01 a      1314     1    25     2    14
 -4.0524093542634455E-02 a      1315     1    25     2    15
  9.9323379020992364E-02 a      1316     1    25     2    16
  9.6814770482680029E-02 a      1317     1    25     2    17
 -7.2463881246901986E-03 a      1318     1    25     2    18
 -2.6813445832074073E-01 a      1319     1    25     2    19
  1.1287269590222325E-01 a      1320     1    25     2    20
 -9.6467409247621649E-02 a      1321     1    25     2    21
 -2.8221884155840826E-01 a      1322     1    25     2    22
  1.2858986726807470E-01 a      1323     1    25     2    23
 -5.3346860168707270E-03 a      1324     1    25     2    24
  7.0649520477053071E-02 a      1325     1    25     2    25
 -5.5347326586187164E-02 b      1326     2     1
  8.0022743217024461E-02 b      1327     2     2
 -1.5296846526319538E-01 b      1328     2     3
 -4.1406734079786740E-02 b      1329     2     4
 -1.2192361184637542E-01 b      1330     2     5
  5.8547599458554068E-02 b      1331     2     6
 -1.0440079936754416E-01 b      1332     2     7
  9.2579303284298448E-02 b      1333     2     8
 -8.1434375967358585E-02 b      1334     2     9
  1.8119347953239825E-01 b      1335     2    10
 -3.9796442957712570E-02 b      1336     2    11
 -1.1686517596379427E-02 b      1337     2    12
 -8.2411726093027771E-02 b      1338     2    13
 -1.3444831010286019E-02 b      1339     2    14
  2.2035964399929546E-02 b      1340     2    15
 -1.5082262413035724E-01 b      1341     2    16
 -1.6977896429939310E-01 b      1342     2    17
  1.2865360236353421E-01 b      1343     2    18
  2.8308565021872137E-02 b      1344     2    19
 -5.7940195959257063E-02 b      1345     2    20
 -5.9701439231980777E-02 b      1346     2    21
  5.7759817766188298E-02 b      1347     2    22
  1.5528306350127905E-01 b      1348     2    23
  2.6353956555450953E-01 b      1349     2    24
 -1.0098829496732277E-01 b      1350     2    25
 -4.4441775135512285E-01 a      1351     2     1     3     1
 -6.5683999392228387E-01 a      1352     2     2     3     1
 -4.8642218205532312E-01 a      1353     2     3     3     1
 -1.4216602580722668E-01 a      1354     2     4     3     1
 -6.5773133399322503E-01 a      1355     2     5     3     1
 -6.4236722778142630E-01 a      1356     2     6     3     1
 -2.0987599507795059E-02 a      1357     2     7     3     1
 -7.7551903883738726E-01 a      1358     2     8     3     1
  9.3464524378816738E-01 a      1359     2     9     3     1
 -4.7867832374304031E-01 a      1360     2    10     3     1
 -6.9624684723527430E-01 a      1361     2    11     3     1
  9.8135949962452307E-01 a      1362     2    12     3     1
  2.6711201017778713E-01 a      1363     2    13     3     1
 -4.8639632256483550E-01 a      1364     2    14     3     1
  6.0037868537846939E-01 a      1365     2    15     3     1
 -9.3652828177910361E-02 a      1366     2    16     3     1
 -6.7584019062149980E-01 a      1367     2    17     3     1
 -8.4616786138310773E-01 a      1368     2    18     3     1
 -3.7494600429469560E-01 a      1369     2    19     3     1
 -7.3060389256634617E-01 a      1370     2    20     3     1
 -2.8947145683416631E-01 a      1371     2    21     3     1
  1.1580685713371205E-01 a      1372     2    22     3     1
 -5.3799201692412357E-01 a      1373     2    23     3     1
 -2.7328687922139439E-01 a      1374     2    24     3     1
 -1.5183935747086838E-01 a      1375     2    25     3     1
  1.0592196700772284E-01 b      1376     3     1
